tree
version=v4
num_class=1
num_tree_per_iteration=1
label_index=0
max_feature_idx=929
objective=binary sigmoid:1
feature_names=P_2_mean P_2_std P_2_min P_2_max P_2_last D_39_mean D_39_std D_39_min D_39_max D_39_last B_1_mean B_1_std B_1_min B_1_max B_1_last B_2_mean B_2_std B_2_min B_2_max B_2_last R_1_mean R_1_std R_1_min R_1_max R_1_last S_3_mean S_3_std S_3_min S_3_max S_3_last D_41_mean D_41_std D_41_min D_41_max D_41_last B_3_mean B_3_std B_3_min B_3_max B_3_last D_42_mean D_42_std D_42_min D_42_max D_42_last D_43_mean D_43_std D_43_min D_43_max D_43_last D_44_mean D_44_std D_44_min D_44_max D_44_last B_4_mean B_4_std B_4_min B_4_max B_4_last D_45_mean D_45_std D_45_min D_45_max D_45_last B_5_mean B_5_std B_5_min B_5_max B_5_last R_2_mean R_2_std R_2_min R_2_max R_2_last D_46_mean D_46_std D_46_min D_46_max D_46_last D_47_mean D_47_std D_47_min D_47_max D_47_last D_48_mean D_48_std D_48_min D_48_max D_48_last D_49_mean D_49_std D_49_min D_49_max D_49_last B_6_mean B_6_std B_6_min B_6_max B_6_last B_7_mean B_7_std B_7_min B_7_max B_7_last B_8_mean B_8_std B_8_min B_8_max B_8_last D_50_mean D_50_std D_50_min D_50_max D_50_last D_51_mean D_51_std D_51_min D_51_max D_51_last B_9_mean B_9_std B_9_min B_9_max B_9_last R_3_mean R_3_std R_3_min R_3_max R_3_last D_52_mean D_52_std D_52_min D_52_max D_52_last P_3_mean P_3_std P_3_min P_3_max P_3_last B_10_mean B_10_std B_10_min B_10_max B_10_last D_53_mean D_53_std D_53_min D_53_max D_53_last S_5_mean S_5_std S_5_min S_5_max S_5_last B_11_mean B_11_std B_11_min B_11_max B_11_last S_6_mean S_6_std S_6_min S_6_max S_6_last D_54_mean D_54_std D_54_min D_54_max D_54_last R_4_mean R_4_std R_4_min R_4_max R_4_last S_7_mean S_7_std S_7_min S_7_max S_7_last B_12_mean B_12_std B_12_min B_12_max B_12_last S_8_mean S_8_std S_8_min S_8_max S_8_last D_55_mean D_55_std D_55_min D_55_max D_55_last D_56_mean D_56_std D_56_min D_56_max D_56_last B_13_mean B_13_std B_13_min B_13_max B_13_last R_5_mean R_5_std R_5_min R_5_max R_5_last D_58_mean D_58_std D_58_min D_58_max D_58_last S_9_mean S_9_std S_9_min S_9_max S_9_last B_14_mean B_14_std B_14_min B_14_max B_14_last D_59_mean D_59_std D_59_min D_59_max D_59_last D_60_mean D_60_std D_60_min D_60_max D_60_last D_61_mean D_61_std D_61_min D_61_max D_61_last B_15_mean B_15_std B_15_min B_15_max B_15_last S_11_mean S_11_std S_11_min S_11_max S_11_last D_62_mean D_62_std D_62_min D_62_max D_62_last D_65_mean D_65_std D_65_min D_65_max D_65_last B_16_mean B_16_std B_16_min B_16_max B_16_last B_17_mean B_17_std B_17_min B_17_max B_17_last B_18_mean B_18_std B_18_min B_18_max B_18_last B_19_mean B_19_std B_19_min B_19_max B_19_last D_66_mean D_66_std D_66_min D_66_max D_66_last B_20_mean B_20_std B_20_min B_20_max B_20_last D_68_mean D_68_std D_68_min D_68_max D_68_last S_12_mean S_12_std S_12_min S_12_max S_12_last R_6_mean R_6_std R_6_min R_6_max R_6_last S_13_mean S_13_std S_13_min S_13_max S_13_last B_21_mean B_21_std B_21_min B_21_max B_21_last D_69_mean D_69_std D_69_min D_69_max D_69_last B_22_mean B_22_std B_22_min B_22_max B_22_last D_70_mean D_70_std D_70_min D_70_max D_70_last D_71_mean D_71_std D_71_min D_71_max D_71_last D_72_mean D_72_std D_72_min D_72_max D_72_last S_15_mean S_15_std S_15_min S_15_max S_15_last B_23_mean B_23_std B_23_min B_23_max B_23_last D_73_mean D_73_std D_73_min D_73_max D_73_last P_4_mean P_4_std P_4_min P_4_max P_4_last D_74_mean D_74_std D_74_min D_74_max D_74_last D_75_mean D_75_std D_75_min D_75_max D_75_last D_76_mean D_76_std D_76_min D_76_max D_76_last B_24_mean B_24_std B_24_min B_24_max B_24_last R_7_mean R_7_std R_7_min R_7_max R_7_last D_77_mean D_77_std D_77_min D_77_max D_77_last B_25_mean B_25_std B_25_min B_25_max B_25_last B_26_mean B_26_std B_26_min B_26_max B_26_last D_78_mean D_78_std D_78_min D_78_max D_78_last D_79_mean D_79_std D_79_min D_79_max D_79_last R_8_mean R_8_std R_8_min R_8_max R_8_last R_9_mean R_9_std R_9_min R_9_max R_9_last S_16_mean S_16_std S_16_min S_16_max S_16_last D_80_mean D_80_std D_80_min D_80_max D_80_last R_10_mean R_10_std R_10_min R_10_max R_10_last R_11_mean R_11_std R_11_min R_11_max R_11_last B_27_mean B_27_std B_27_min B_27_max B_27_last D_81_mean D_81_std D_81_min D_81_max D_81_last D_82_mean D_82_std D_82_min D_82_max D_82_last S_17_mean S_17_std S_17_min S_17_max S_17_last R_12_mean R_12_std R_12_min R_12_max R_12_last B_28_mean B_28_std B_28_min B_28_max B_28_last R_13_mean R_13_std R_13_min R_13_max R_13_last D_83_mean D_83_std D_83_min D_83_max D_83_last R_14_mean R_14_std R_14_min R_14_max R_14_last R_15_mean R_15_std R_15_min R_15_max R_15_last D_84_mean D_84_std D_84_min D_84_max D_84_last R_16_mean R_16_std R_16_min R_16_max R_16_last B_29_mean B_29_std B_29_min B_29_max B_29_last B_30_mean B_30_std B_30_min B_30_max B_30_last S_18_mean S_18_std S_18_min S_18_max S_18_last D_86_mean D_86_std D_86_min D_86_max D_86_last D_87_mean D_87_std D_87_min D_87_max D_87_last R_17_mean R_17_std R_17_min R_17_max R_17_last R_18_mean R_18_std R_18_min R_18_max R_18_last D_88_mean D_88_std D_88_min D_88_max D_88_last B_31_mean B_31_std B_31_min B_31_max B_31_last S_19_mean S_19_std S_19_min S_19_max S_19_last R_19_mean R_19_std R_19_min R_19_max R_19_last B_32_mean B_32_std B_32_min B_32_max B_32_last S_20_mean S_20_std S_20_min S_20_max S_20_last R_20_mean R_20_std R_20_min R_20_max R_20_last R_21_mean R_21_std R_21_min R_21_max R_21_last B_33_mean B_33_std B_33_min B_33_max B_33_last D_89_mean D_89_std D_89_min D_89_max D_89_last R_22_mean R_22_std R_22_min R_22_max R_22_last R_23_mean R_23_std R_23_min R_23_max R_23_last D_91_mean D_91_std D_91_min D_91_max D_91_last D_92_mean D_92_std D_92_min D_92_max D_92_last D_93_mean D_93_std D_93_min D_93_max D_93_last D_94_mean D_94_std D_94_min D_94_max D_94_last R_24_mean R_24_std R_24_min R_24_max R_24_last R_25_mean R_25_std R_25_min R_25_max R_25_last D_96_mean D_96_std D_96_min D_96_max D_96_last S_22_mean S_22_std S_22_min S_22_max S_22_last S_23_mean S_23_std S_23_min S_23_max S_23_last S_24_mean S_24_std S_24_min S_24_max S_24_last S_25_mean S_25_std S_25_min S_25_max S_25_last S_26_mean S_26_std S_26_min S_26_max S_26_last D_102_mean D_102_std D_102_min D_102_max D_102_last D_103_mean D_103_std D_103_min D_103_max D_103_last D_104_mean D_104_std D_104_min D_104_max D_104_last D_105_mean D_105_std D_105_min D_105_max D_105_last D_106_mean D_106_std D_106_min D_106_max D_106_last D_107_mean D_107_std D_107_min D_107_max D_107_last B_36_mean B_36_std B_36_min B_36_max B_36_last B_37_mean B_37_std B_37_min B_37_max B_37_last R_26_mean R_26_std R_26_min R_26_max R_26_last R_27_mean R_27_std R_27_min R_27_max R_27_last B_38_mean B_38_std B_38_min B_38_max B_38_last D_108_mean D_108_std D_108_min D_108_max D_108_last D_109_mean D_109_std D_109_min D_109_max D_109_last D_110_mean D_110_std D_110_min D_110_max D_110_last D_111_mean D_111_std D_111_min D_111_max D_111_last B_39_mean B_39_std B_39_min B_39_max B_39_last D_112_mean D_112_std D_112_min D_112_max D_112_last B_40_mean B_40_std B_40_min B_40_max B_40_last S_27_mean S_27_std S_27_min S_27_max S_27_last D_113_mean D_113_std D_113_min D_113_max D_113_last D_114_mean D_114_std D_114_min D_114_max D_114_last D_115_mean D_115_std D_115_min D_115_max D_115_last D_116_mean D_116_std D_116_min D_116_max D_116_last D_117_mean D_117_std D_117_min D_117_max D_117_last D_118_mean D_118_std D_118_min D_118_max D_118_last D_119_mean D_119_std D_119_min D_119_max D_119_last D_120_mean D_120_std D_120_min D_120_max D_120_last D_121_mean D_121_std D_121_min D_121_max D_121_last D_122_mean D_122_std D_122_min D_122_max D_122_last D_123_mean D_123_std D_123_min D_123_max D_123_last D_124_mean D_124_std D_124_min D_124_max D_124_last D_125_mean D_125_std D_125_min D_125_max D_125_last D_126_mean D_126_std D_126_min D_126_max D_126_last D_127_mean D_127_std D_127_min D_127_max D_127_last D_128_mean D_128_std D_128_min D_128_max D_128_last D_129_mean D_129_std D_129_min D_129_max D_129_last B_41_mean B_41_std B_41_min B_41_max B_41_last B_42_mean B_42_std B_42_min B_42_max B_42_last D_130_mean D_130_std D_130_min D_130_max D_130_last D_131_mean D_131_std D_131_min D_131_max D_131_last D_132_mean D_132_std D_132_min D_132_max D_132_last D_133_mean D_133_std D_133_min D_133_max D_133_last R_28_mean R_28_std R_28_min R_28_max R_28_last D_134_mean D_134_std D_134_min D_134_max D_134_last D_135_mean D_135_std D_135_min D_135_max D_135_last D_136_mean D_136_std D_136_min D_136_max D_136_last D_137_mean D_137_std D_137_min D_137_max D_137_last D_138_mean D_138_std D_138_min D_138_max D_138_last D_139_mean D_139_std D_139_min D_139_max D_139_last D_140_mean D_140_std D_140_min D_140_max D_140_last D_141_mean D_141_std D_141_min D_141_max D_141_last D_142_mean D_142_std D_142_min D_142_max D_142_last D_143_mean D_143_std D_143_min D_143_max D_143_last D_144_mean D_144_std D_144_min D_144_max D_144_last D_145_mean D_145_std D_145_min D_145_max D_145_last
feature_infos=[-0.16829779744148254:1.0063518285751343] [0.00065304053714498878:0.29707860946655273] [-0.25692117214202881:1.0004876852035522] [-0.051477335393428802:1.0099117755889893] [-0.25692117214202881:1.0097802877426147] [0.00047471767175011337:1.1188511848449707] [0.0002247451338917017:1.3478852510452271] [8.7016303496056935e-07:0.91927659511566162] [0.00063363648951053619:5.0093026161193848] [8.7016303496056935e-07:3.0016257762908936] [-0.010232954286038876:1.3202202320098877] [0.00071505282539874315:0.68011772632598877] [-0.14146898686885834:1.3183540105819702] [0.0037119772750884295:1.3239809274673462] [-0.00088631629478186369:1.3202133178710938] [0.0013741743750870228:1.0077162981033325] [0.00063926854636520147:0.70501548051834106] [8.6757090684841387e-06:1.0050117969512939] [0.0013741743750870228:1.0099997520446777] [0.00040605623507872224:1.0099682807922363] [0.00081382330972701311:1.0436183214187622] [2.670219328138046e-05:0.8744017481803894] [5.5997008985286811e-07:1.0043289661407471] [0.00081382330972701311:2.2592828273773193] [1.2270303386685555e-06:2.0027244091033936] [-0.083273746073246002:1.5969988107681274] [0.0014883640687912703:0.75945085287094116] [-0.16116462647914886:1.3491126298904419] [-0.028656993061304092:2.4931340217590332] [-0.1260848194360733:2.0478029251098633] [0.0015994942514225841:1.5953384637832642] [4.648405229090713e-05:1.1972328424453735] [8.4228679497755365e-07:0.81924235820770264] [0.0025750880595296621:4.5648708343505859] [7.7367503763525747e-06:4.5648708343505859] [0.00025124059175141156:1.24141526222229] [9.5743243946344592e-06:0.44485920667648315] [2.6073687422467628e-06:1.1915915012359619] [0.00025124059175141156:1.3712306022644043] [2.2527454348164611e-05:1.3712306022644043] [0.0022947576362639666:1.068445086479187] [0.00020424899412319064:0.18031197786331177] [0.00023738185700494796:1.0649071931838989] [0.0022947576362639666:1.071080207824707] [0.0022947576362639666:1.069852352142334] [0.0013932152651250362:1.7665499448776245] [0.00062220502877607942:0.91106951236724854] [9.0707499111886136e-06:1.1341941356658936] [0.0018388363532721996:2.3975706100463867] [9.0707499111886136e-06:2.0434556007385254] [0.00018800988618750125:2.1198008060455322] [2.2174634068505839e-05:0.54383975267410278] [9.794337074708892e-07:1.5084130764007568] [0.00018800988618750125:2.3772740364074707] [5.2463315114437137e-06:2.3766238689422607] [0.00051359011558815837:1.7288359403610229] [0.00041869509732350707:0.46018853783607483] [4.744112516164023e-07:1.2899278402328491] [0.00080965226516127586:2.0598502159118652] [5.318054900271818e-05:2.0598502159118652] [0.00034666559076867998:1.3378794193267822] [0.00018557088333182037:0.24520017206668854] [5.5012169468682259e-05:1.3244638442993164] [0.00034666559076867998:1.3492674827575684] [0.00034666559076867998:1.3492674827575684] [0.00065362593159079552:7.8185563087463379] [0.0002456790825817734:11.904596328735352] [5.3654157454730012e-06:1.0332313776016235] [0.00065362593159079552:43.983806610107422] [9.1950323621858843e-06:6.4822273254394531] [0.00019630027236416936:1.0055365562438965] [0.00019821804016828537:0.58126795291900635] [2.8061216994501592e-07:1.0014771223068237] [0.00019630027236416936:1.0099835395812988] [4.9215923354495317e-06:1.0098456144332886] [-0.33077341318130493:1.2738496065139771] [0.00010820812894962728:1.5119620561599731] [-1.2600560188293457:1.1821826696395874] [0.15956248342990875:4.0272049903869629] [-1.2024409770965576:1.390600323677063] [-0.018096335232257843:1.2573546171188354] [0.00012840396084357053:0.3796076774597168] [-0.026576807722449303:1.2480202913284302] [-0.017044823616743088:1.2687548398971558] [-0.017044823616743088:1.2687548398971558] [-0.0058531654067337513:1.197729229927063] [0.00036802358226850629:0.50834131240844727] [-0.0095483940094709396:1.194230318069458] [-0.0040720812976360321:1.6565356254577637] [-0.0092354211956262589:1.2411983013153076] [0.0040581370703876019:1.4032411575317383] [5.120281275594607e-05:0.13256280124187469] [0.0006085561471991241:1.4032411575317383] [0.0064407088793814182:1.4126905202865601] [0.0011227382346987724:1.4032411575317383] [0.00042652137926779687:9.0937023162841797] [0.00033140720915980637:5.1457853317260742] [-0.0021215197630226612:3.2740874290466309] [0.00042652137926779687:19.359714508056641] [0.00011200136214029044:19.359714508056641] [0.0036557128187268972:1.1167721748352051] [0.00063842168310657144:0.54742306470870972] [-0.096912793815135956:0.98085552453994751] [0.0042674769647419453:1.2525073289871216] [0.00086678587831556797:1.2440365552902222] [0.0026038133073598146:1.0095807313919067] [5.8591282140696421e-05:0.52037358283996582] [2.7648673039948335e-07:1.0095807313919067] [0.0039628744125366211:1.0101813077926636] [6.3446641433984041e-06:1.0100313425064087] [-0.35005477070808411:7.8572487831115723] [2.6174267986789346e-05:3.5648031234741211] [-0.60334241390228271:2.9007558822631836] [-0.12173224985599518:14.018648147583008] [-0.32796546816825867:5.4673643112182617] [0.0014318350004032254:1.877618670463562] [1.5699668438173831e-05:0.51923543214797974] [4.5314075691749167e-07:1.6683863401412964] [0.0014318350004032254:2.0090272426605225] [6.4191267483693082e-06:1.6699531078338623] [0.00075972045306116343:1.1518428325653076] [4.0886308852350339e-05:1.0396052598953247] [9.4001057959758327e-07:0.97912514209747314] [0.00075972045306116343:3.9208078384399414] [1.4686480426462367e-05:1.9577763080596924] [0.001172630931250751:2.9716744422912598] [0.00011993523366982117:0.8288576602935791] [1.2402724678395316e-06:1.2055858373641968] [0.001172630931250751:3.9045917987823486] [4.80754351883661e-06:3.0086228847503662] [-0.0001732266100589186:1.0069990158081055] [3.2739721063990146e-05:0.50331652164459229] [-0.0049734567292034626:1.0069990158081055] [0.0010151501046493649:1.0099800825119019] [-0.0049734567292034626:1.0099388360977173] [-0.9346153736114502:1.1497308015823364] [0.00051258935127407312:0.49440902471542358] [-0.9346153736114502:1.1015176773071289] [-0.9346153736114502:1.7438900470733643] [-0.9346153736114502:1.3021050691604614] [0.0012848100159317255:25.362869262695312] [0.00016250637418124825:84.340225219726562] [-0.0029387159738689661:0.63426339626312256] [0.0012848100159317255:305.99655151367188] [-0.00028480318724177778:305.99655151367188] [0.00052190676797181368:1.3171682357788086] [0.00060582184232771397:0.6045529842376709] [5.9093117670272477e-06:0.92765766382217407] [0.0009502875036559999:2.0296602249145508] [9.3526068667415529e-05:1.8604363203048706] [0.00011228287621634081:5.7082476615905762] [0.00016040338960010558:5.3771181106567383] [1.2740720194415189e-06:1.4548697471618652] [0.00011228287621634081:14.142183303833008] [7.7047297963872552e-06:13.746440887451172] [0.00011741291382350028:1.3917869329452515] [0.00029891153099015355:0.68242758512496948] [3.9735542145535874e-07:1.3913377523422241] [0.00011741291382350028:1.4073659181594849] [2.8351254513836466e-05:1.3922359943389893] [0.0023760066833347082:1.0098944902420044] [0.00040565419476479292:0.5812116265296936] [4.4538168708641024e-07:1.0098944902420044] [0.0037969115655869246:1.0099959373474121] [4.4538168708641024e-07:1.0099925994873047] [0.0048577459529042244:1.009978175163269] [7.4991097790189087e-05:0.535003662109375] [-0.0019694429356604815:1.009978175163269] [0.012087318114936352:1.0099989175796509] [-0.0019694429356604815:1.0099989175796509] [0.0009748980519361794:1.0054078102111816] [0.00016324805619660765:0.57685822248458862] [4.02770041318945e-07:1.0054078102111816] [0.0009748980519361794:1.0099937915802002] [9.7070242190966383e-06:1.0098028182983398] [-0.062299471348524094:1.3946523666381836] [0.00060209323419257998:0.52336686849594116] [-0.13414815068244934:1.2580174207687378] [-0.018965128809213638:1.8713901042938232] [-0.081018559634685516:1.5372312068939209] [6.6785396484192461e-05:10.701729774475098] [0.00021234275482129306:1.7418363094329834] [1.8009572158916853e-05:8.8537712097167969] [6.6785396484192461e-05:13.430798530578613] [6.6785396484192461e-05:13.430798530578613] [0.002365045715123415:1.0604594945907593] [0.00077479926403611898:0.58243155479431152] [2.5290871690231143e-06:1.0154666900634766] [0.0025240548420697451:1.2284864187240601] [2.3001099179964513e-05:1.2283728122711182] [0.0026569326873868704:1.1165084838867188] [0.0013362908503040671:0.2983623743057251] [2.2348789570969529e-05:1.0883349180221558] [0.0046190787106752396:1.1252830028533936] [2.4722321541048586e-05:1.0883349180221558] [-0.0088739311322569847:1.6589642763137817] [0.00021081074373796582:0.24479231238365173] [-0.011552923358976841:1.6362011432647705] [-0.0075067160651087761:1.6853669881820679] [-0.007562155369669199:1.6370223760604858] [0.0018674611346796155:11.926861763000488] [0.00035062269307672977:5.165886402130127] [2.3881727884145221e-07:5.3534865379333496] [0.0018674611346796155:18.049806594848633] [1.9812008758890443e-05:18.048244476318359] [0.00027576411957852542:2.2546355724334717] [0.0004459163174033165:2.4804329872131348] [1.4275677528985398e-07:0.50643593072891235] [0.00027576411957852542:7.0035157203674316] [7.6670376074616797e-06:7.0035157203674316] [0.00044178430107422173:1.1798253059387207] [0.00076429388718679547:0.42195674777030945] [2.510399326638435e-06:1.1220972537994385] [0.00044178430107422173:1.2048759460449219] [7.5917632784694433e-06:1.2000737190246582] [0.00022444553906098008:1.80909264087677] [1.2632246580324136e-05:0.98138487339019775] [5.5948307817743625e-06:1.2382148504257202] [0.00022444553906098008:2.5336811542510986] [5.5948307817743625e-06:1.49406898021698] [-0.0005469560855999589:6.4151721000671387] [0.00022958833142183721:4.229525089263916] [-2.421581506729126:2.3290002346038818] [0.00017521239351481199:14.166471481323242] [-0.0015853878576308489:4.4626970291137695] [-0.0770411416888237:1.2904509305953979] [0.00057507277233526111:0.35725650191307068] [-0.08319990336894989:1.2171814441680908] [-0.073348291218280792:1.4627348184585571] [-0.07454923540353775:1.3195416927337646] [0.0017425016267225146:1.0095903873443604] [0.00035875471075996757:0.53992259502410889] [1.2297513194425846e-06:1.0095903873443604] [0.0017425016267225146:1.0099993944168091] [0.00019746831094380468:1.0098816156387329] [-0.0086066210642457008:1.7630120515823364] [0.00032111650216393173:0.4965762197971344] [-0.0092391408979892731:1.3282060623168945] [-0.0086066210642457008:1.8887606859207153] [-0.0088236508890986443:1.8843729496002197] [-0.0033570032101124525:7.582303524017334] [0.00058525771601125598:5.0016646385192871] [-2.8653554916381836:2.7457015514373779] [0.00019784098549280316:16.746063232421875] [2.7651796585814736e-07:5.2749147415161133] [-0.11279468983411789:1.2653772830963135] [0.0010634663049131632:0.72066915035247803] [-0.1980217844247818:1.1692286729812622] [-0.11279468983411789:2.6868739128112793] [-0.1178525909781456:1.6025267839431763] [0.0012426344910636544:1.2521803379058838] [5.1154660468455404e-05:1.1024622917175293] [-0.0015511709498241544:1.2476141452789307] [0.0022016332950443029:3.153423547744751] [-0.00048952188808470964:1.4121649265289307] [3.9623180782655254e-05:3.465193510055542] [0.00022285958402790129:8.9088907241821289] [8.0898431065179466e-08:0.85031086206436157] [3.9623180782655254e-05:29.055292129516602] [1.1662954193525366e-06:4.2955236434936523] [0.0011973800137639046:1.0098352432250977] [0.00040795860695652664:0.36452043056488037] [6.0990458905507694e-07:1.0098352432250977] [0.0018731741001829505:1.0099993944168091] [6.0990458905507694e-07:1.0099526643753052] [0.0015623106155544519:1.0099425315856934] [3.8462902011815459e-05:0.7076791524887085] [3.0616035928687779e-06:1.0099425315856934] [0.0015623106155544519:1.0099971294403076] [3.0616035928687779e-06:1.0099750757217407] [0.0021316618658602238:1.0099788904190063] [0.00093101331731304526:0.43625521659851074] [6.8611811911978293e-06:1.0099788904190063] [0.0039727585390210152:1.0099989175796509] [8.5496496467385441e-05:1.0099788904190063] [8.0719728430267423e-05:1.0074434280395508] [0.00070125621277838945:0.57966065406799316] [4.3700759988496429e-07:1.0025748014450073] [8.0719728430267423e-05:1.0099953413009644] [5.2165869419695809e-05:1.009967565536499] [0:1] [0:0] [0:1] [0:1] [0:1] [0.00041885121027007699:1.0073283910751343] [0.00074358016718178988:0.51879894733428955] [1.0224107427347917e-06:1.0039011240005493] [0.00041885121027007699:1.0099979639053345] [2.6311685360269621e-05:1.0099861621856689] [0:6] [0:2.8823068141937256] [0:6] [0:6] [0:6] [0.021760223433375359:1.8506671190261841] [0.00044807628728449345:4.5694155693054199] [-0.3641325831413269:0.38638865947723389] [0.18441994488239288:16.226123809814453] [-0.25290787220001221:3.5288422107696533] [5.7422144891461357e-05:6.9546842575073242] [0.00060933362692594528:5.490964412689209] [9.9945100373588502e-07:5.6573729515075684] [5.7422144891461357e-05:14.448064804077148] [1.9665899344545323e-06:14.439718246459961] [0.00076374807395040989:1.0092035531997681] [0.0002916862431447953:0.53351229429244995] [9.6140252026089001e-07:1.0092035531997681] [0.00076374807395040989:1.0099930763244629] [1.1454056220827624e-05:1.0099334716796875] [0.00053361034952104092:9.8780269622802734] [9.1248999524395913e-05:6.451962947845459] [1.1759674407585408e-06:9.8780269622802734] [0.00053361034952104092:13.538527488708496] [2.0512084120127838e-06:13.538527488708496] [0.00036286056274548173:119.02246856689453] [0.0002797196211759001:46.690540313720703] [8.9745626041803916e-08:23.858852386474609] [0.00036286056274548173:138.15385437011719] [7.2222417202283395e-07:138.15170288085938] [0.00011565051681827754:1.4276126623153687] [8.4003950178157538e-06:0.67558515071868896] [1.0052197012555553e-06:1.003313422203064] [0.00011565051681827754:2.0078098773956299] [2.3190352749224985e-06:1.5042687654495239] [8.3886252468801104e-06:1.7923784255981445] [6.9676047132816166e-05:0.64450502395629883] [1.0221552315670124e-07:1.2543824911117554] [8.3886252468801104e-06:2.2573401927947998] [1.6835182350405375e-06:2.009272575378418] [0.00070312526077032089:7.7664999961853027] [0.0001486951659899205:2.6021862030029297] [8.0597210398991592e-06:4.1190629005432129] [0.00070312526077032089:9.9127397537231445] [0.00024030049098655581:8.0353507995605469] [3.3878885005833581e-05:3.0072751045227051] [0.00011606633051997051:1.3640739917755127] [9.2274302687656018e-07:3.0042145252227783] [3.3878885005833581e-05:3.0095386505126953] [3.3516309940750943e-06:3.0095136165618896] [-0.0017014113254845142:1.5006948709487915] [0.00020626092737074941:0.66489064693450928] [-0.2990647554397583:1.5006948709487915] [0.0094422837719321251:2.9029102325439453] [-0.09535825252532959:1.7080428600311279] [0.0014717307640239596:1.1732323169708252] [0.00014078752428758889:0.51747584342956543] [8.7566741058253683e-06:1.0536009073257446] [0.0014717307640239596:1.3162641525268555] [1.8284135876456276e-05:1.3103780746459961] none none none none none [0.00010682271386031061:1.0086301565170288] [8.4313105617184192e-05:0.52923917770385742] [1.5672881090722512e-06:0.99727779626846313] [0.00019600585801526904:1.1481884717941284] [6.8402032411540858e-06:1.0375713109970093] [0.00014454695337917656:2.4334549903869629] [0.00050173344789072871:0.4389519989490509] [1.0289403462593327e-06:2.2936367988586426] [0.00014454695337917656:2.5095643997192383] [9.8479895314085297e-06:2.4297101497650146] [0.0015829639742150903:2.4047822952270508] [0.0011579417623579502:0.40912330150604248] [8.6853134462216985e-07:2.2735304832458496] [0.0015829639742150903:2.476351261138916] [6.031601060385583e-06:2.4000411033630371] [0.0022944384254515171:1.1389011144638062] [0.00059456983581185341:0.31209981441497803] [1.9163687738910085e-06:1.1342576742172241] [0.0022944384254515171:1.1441012620925903] [0.00072187959449365735:1.1347812414169312] [0.0004954978940077126:2.5210697650909424] [0.00022078178881201893:2.6442627906799316] [5.9126076479287804e-08:1.5172412395477295] [0.00065004918724298477:8.1899805068969727] [5.0853518587246072e-06:7.932835578918457] [0.00025554109015502036:7.6324090957641602] [0.00026262551546096802:14.154570579528809] [8.109958571367315e-07:3.3007910251617432] [0.00025554109015502036:43.526870727539062] [1.18778762043803e-05:27.081842422485352] [0.00022183706460054964:1.1576570272445679] [1.0418406418466475e-05:1.0141719579696655] [7.1922433562576771e-05:1.1524403095245361] [0.00022183706460054964:2.9078433513641357] [0.00022183706460054964:1.3058744668960571] [0.0012079523876309395:2.0825076103210449] [0.00013644366117659956:0.5824127197265625] [-0.082131162285804749:1.897742748260498] [0.0012079523876309395:2.4581503868103027] [-0.011838553473353386:2.3079497814178467] [0.00018266034021507949:73.867660522460938] [0.00041935345507226884:134.99319458007812] [8.0773128274813644e-07:0.75500482320785522] [0.00018266034021507949:348.354248046875] [7.6180826908966992e-06:58.4493408203125] [0.00025583105161786079:1.7563157081604004] [0.00021444016601890326:1.4070665836334229] [3.2749989031799487e-07:1.5074526071548462] [0.00025583105161786079:4.007319450378418] [5.9664935179171152e-06:4.007319450378418] [0.0010009385878220201:1.7346562147140503] [8.6727952293585986e-05:0.54067236185073853] [1.5384124480988248e-06:1.501656174659729] [0.0016378678847104311:2.0095922946929932] [6.4137934714381117e-06:2.0054812431335449] [0.00024151752586476505:3.5065290927886963] [0.00054784538224339485:3.5390119552612305] [4.2254401932950714e-07:1.0073091983795166] [0.00024151752586476505:8.0080347061157227] [7.5146880362808588e-07:8.0057840347290039] [0.0018382781418040395:0.86423218250274658] [0.00038205896271392703:0.47368952631950378] [3.1214850082506018e-07:0.83358818292617798] [0.0018382781418040395:1.0095294713973999] [0.0018382781418040395:0.84173214435577393] [0.00079409312456846237:3.963930606842041] [0.00042380875675007701:3.7345821857452393] [9.5615575901319971e-07:2.8462357521057129] [0.00079409312456846237:7.8040633201599121] [6.1646569520235062e-06:7.8040633201599121] [0.00072443700628355145:1.7895312309265137] [9.350744221592322e-05:0.84646278619766235] [7.2379378934783745e-07:1.0058411359786987] [0.00072443700628355145:2.2020933628082275] [1.0550143997534178e-05:2.0043184757232666] [0.00010126543929800391:1.8055661916732788] [0.00067483948078006506:1.976319432258606] [6.190175554365851e-07:1.0020396709442139] [0.00010126543929800391:7.0016956329345703] [6.190175554365851e-07:3.0084230899810791] [0.0003178745973855257:1.5098905563354492] [7.0660971687175333e-05:1.0968668460845947] [3.9149122699200234e-07:1.5098905563354492] [0.0003178745973855257:4.007014274597168] [8.8053529907483608e-06:1.5098905563354492] [0.00036046336754225194:0.0098179690539836884] [1.4100870430411305e-05:0.014132029376924038] [7.6120289804748609e-07:0.0098179690539836884] [0.00036046336754225194:0.056158948689699173] [2.0567988030961715e-05:0.056158948689699173] [3.3087176234403159e-06:4.1584219932556152] [7.7112163126002997e-05:2.1024858951568604] [1.7947844099808208e-08:1.0017178058624268] [3.3087176234403159e-06:5.0094223022460938] [3.3087176234403159e-06:5.0013985633850098] [0.0024783019907772541:1.3903396129608154] [0.0014945275615900755:0.26038500666618347] [2.1642199499183334e-07:1.0028122663497925] [0.0056582530960440636:1.5098563432693481] [0.00044359784806147218:1.5039253234863281] [0.00011240065941819921:3.7092115879058838] [0.00015838784747757018:1.9036751985549927] [4.2803719679795904e-07:3.5310423374176025] [0.00011240065941819921:4.0487060546875] [3.4785480238497257e-06:4.0413923263549805] [-0.012821569107472897:1.0099434852600098] [0.00051658140728250146:0.56098884344100952] [-0.090009279549121857:1.0099434852600098] [0.071091078221797943:1.0099992752075195] [-0.084434561431407928:1.0099984407424927] [0.0036894599907100201:3.0282223224639893] [0.00023751647677272558:1.9780120849609375] [3.9199752791319042e-05:1.4289349317550659] [0.006921879481524229:6.6304559707641602] [0.00010920800559688359:2.1447901725769043] [0.00065059965709224343:0.042421393096446991] [0.00033156439894810319:0.070904001593589783] [2.2034331692566411e-08:0.0095965117216110229] [0.00065059965709224343:0.26419833302497864] [2.7329659133101813e-05:0.23482757806777954] [0.0005653311382047832:4.6403789520263672] [0.00012336639338172972:0.96044129133224487] [1.8312954352950328e-06:3.000154972076416] [0.0005653311382047832:5.0080370903015137] [6.5924359660129994e-06:5.0037164688110352] [0.00048701307969167829:32.779529571533203] [0.00012958756997250021:83.324028015136719] [3.0954561225371435e-06:0.49702513217926025] [0.00048701307969167829:278.923095703125] [7.9835554060991853e-06:143.57060241699219] [9.562329069012776e-05:1.0045300722122192] [8.9746725279837847e-05:0.57617509365081787] [5.94786286001181e-07:1.0045300722122192] [9.562329069012776e-05:1.0099776983261108] [1.7340859130854369e-06:1.0095515251159668] [0.00030785612761974335:3.0043497085571289] [7.5367635872680694e-05:2.1175537109375] [5.917316343584389e-07:0.50475120544433594] [0.00030785612761974335:6.5058383941650391] [5.917316343584389e-07:5.0036196708679199] [0.00031825160840526223:1.6153668165206909] [0.00015676958719268441:1.6125952005386353] [5.2377339443410165e-07:1.5050020217895508] [0.00031825160840526223:5.0070099830627441] [1.3813687473884784e-05:4.0038137435913086] [0.0017828386044129729:0.11884536594152451] [0.00038578646490350366:0.15691722929477692] [1.3781870620732661e-05:0.025919653475284576] [0.003890675725415349:0.54967707395553589] [4.3544452637434006e-05:0.028409874066710472] [0:1.076923131942749] [0:1.0954451560974121] none [0:2] [0:2] [0.00016925219097174704:1.004275918006897] [9.5499217422911897e-06:0.57666611671447754] [8.577806056564441e-07:1.0001543760299683] [0.00016925219097174704:1.0099958181381226] [5.3386402214528061e-06:1.0051616430282593] [0.00027717978809960186:1.0065498352050781] [0.00040157019975595176:0.53370940685272217] [2.5811380055529298e-07:1.0025513172149658] [0.00027717978809960186:1.0099343061447144] [8.4966313806944527e-06:1.00937819480896] none none none none none [0.00016382828471250832:0.041606053709983826] [5.300083284964785e-05:0.074210494756698608] [5.9065615687359241e-07:0.0098631288856267929] [0.00016382828471250832:0.2380388081073761] [1.2240641353855608e-06:0.095625557005405426] [2.9709779482800514e-05:0.0097055276855826378] [0.0001414661091985181:0.0064836395904421806] [1.4663744707377191e-07:0.0097055276855826378] [2.9709779482800514e-05:0.0099989855661988258] [5.0519938668003306e-06:0.0099861146882176399] none none none none none none none none none none [0.00034694431815296412:0.01911182701587677] [0.00066800555214285851:0.018706325441598892] [5.9590789192043303e-08:0.0094668120145797729] [0.00034694431815296412:0.06855156272649765] [2.7875407795363571e-06:0.042844627052545547] [0.00063502468401566148:1.0063451528549194] [0.00033151239040307701:0.70331048965454102] [1.2417514199114521e-06:1.002344012260437] [0.00063502468401566148:1.0099970102310181] [9.865127140074037e-06:1.0097600221633911] [0.00081070471787825227:1.0060586929321289] [0.00012241938384249806:0.5209348201751709] [4.6626772132185579e-07:1.0014746189117432] [0.00081070471787825227:1.0099735260009766] [1.4493338312604465e-05:1.0099186897277832] [0.00037985737435519695:1.0044363737106323] [0.00013926853716839105:0.54859060049057007] [8.2601906115087331e-07:1.0008335113525391] [0.00037985737435519695:1.0099892616271973] [1.8951297533931211e-05:1.0095934867858887] [0.00083663529949262738:4.3131656646728516] [7.6213545980863273e-06:4.750056266784668] [1.3877451010557706e-07:1.0020735263824463] [0.00083663529949262738:14.006383895874023] [9.3639609985984862e-06:11.00706672668457] [4.9485155614092946e-05:1.0076843500137329] [0.00017872529861051589:0.54883372783660889] [2.1946857486909721e-07:1.0076843500137329] [4.9485155614092946e-05:1.0099892616271973] [5.8208399877912598e-07:1.009934663772583] [0.0011621760204434395:1.0091358423233032] [0.00055850838543847203:0.70424509048461914] [3.0281071872195753e-07:1.0091358423233032] [0.0011621760204434395:1.0099997520446777] [2.5334846213809215e-05:1.0099890232086182] [0.00017303062486462295:0.14219039678573608] [0.00020168221089988947:0.18718276917934418] [2.0104751001781551e-06:0.0092415604740381241] [0.00017303062486462295:0.56490027904510498] [4.1091957427852321e-06:0.44681870937347412] [0.00082630419638007879:0.4664667546749115] [0.00010122481762664393:0.51937228441238403] [1.2700057538950205e-07:0.0097726034000515938] [0.00084968778537586331:1.0099475383758545] [1.39904723255313e-05:1.0072827339172363] [0.00097080634441226721:0.33626958727836609] [0.00018783536506816745:0.51513528823852539] [8.727091085347638e-07:0.0098401214927434921] [0.00097080634441226721:1.0076112747192383] [1.2149662325100508e-06:0.0099845463410019875] [0.00063642248278483748:1.5423704385757446] [6.5064559748861939e-05:0.59360301494598389] [2.6734957714324992e-07:1.5003225803375244] [0.00084149237954989076:2.005976676940918] [1.821830119297374e-05:1.5091241598129272] [0.00089079415192827582:2.0036220550537109] [6.543794006574899e-05:0.86207735538482666] [1.2014592698506021e-07:2.000349760055542] [0.00089079415192827582:2.0097095966339111] [6.4797463892318774e-06:2.0092537403106689] [0.00016777604469098151:1.0062751770019531] [0.00021023620502091944:0.51996749639511108] [1.5385924143629381e-06:1.0034663677215576] [0.00016777604469098151:1.0099742412567139] [2.6350217012804933e-06:1.0095609426498413] [3.0309312933241017e-05:1.0050655603408813] [3.8775448047090322e-05:0.52068495750427246] [4.5501855083784903e-07:1.0008696317672729] [3.0309312933241017e-05:1.0099751949310303] [9.7352096872782568e-07:1.0092759132385254] [0.00012366024020593613:1.0056201219558716] [0.00014703540364280343:0.53549879789352417] [5.1350485819057212e-07:1.0008485317230225] [0.00012366024020593613:1.0099422931671143] [1.3252983990241773e-05:1.0098801851272583] [0.00097561837173998356:0.46019399166107178] [4.7077515773708001e-05:0.52249735593795776] [6.9849238570895977e-07:0.0089292256161570549] [0.00097561837173998356:1.0099532604217529] [6.3412062445422634e-06:1.0098587274551392] [0.00073368585435673594:1.0069024562835693] [8.6752852439531125e-06:0.5216139554977417] [6.4173256930644129e-08:1.0025601387023926] [0.00073368585435673594:1.0099705457687378] [1.8190019545727409e-05:1.0099575519561768] [-4.1910929679870605:1.0271260738372803] [0.00045413884799927473:17.498069763183594] [-59.754768371582031:1.0242416858673096] [0.007904677651822567:1.0325368642807007] [0.0020559064578264952:1.0265014171600342] [-0.29574364423751831:2.7776362895965576] [7.1250986366067082e-05:4.2443609237670898] [-2.0692920684814453:0.98926323652267456] [0.13115566968917847:10.207057952880859] [-2.0692920684814453:6.474215030670166] [-4.8162407875061035:1.021277904510498] [0.00048318281187675893:18.940601348876953] [-66.773170471191406:1.0145756006240845] [0.0040168608538806438:1.053485631942749] [0.00047605129657313228:1.0351995229721069] [-0.58875960111618042:1.3128573894500732] [0.00046476550051011145:1.7668608427047729] [-2.4527754783630371:1.0914127826690674] [0.24939025938510895:2.3255538940429688] [-2.4525382518768311:1.4478483200073242] [0.00039078839472495019:3.3316695690155029] [0.00014478131197392941:1.0593782663345337] [9.1398521817609435e-07:2.4404280185699463] [0.00039078839472495019:4.8003683090209961] [1.4206347032086342e-06:3.0208406448364258] [0.00091428589075803757:1.001118540763855] [4.5745324314339086e-05:0.55312341451644897] [2.8563754312926903e-06:0.90630161762237549] [0.00091428589075803757:1.0898368358612061] [2.1934203687123954e-05:1.0886764526367188] [0.00058172398712486029:1.0099589824676514] [0.00012034620885970071:0.54759335517883301] [1.3791880064673023e-06:1.0099589824676514] [0.00058172398712486029:1.0099996328353882] [4.224958047416294e-06:1.0099782943725586] [0.00042707697139121592:1.0096056461334229] [5.1904262363677844e-05:0.52708661556243896] [2.6565967345959507e-06:1.0041180849075317] [0.00042707697139121592:1.0226902961730957] [1.0441626727697439e-05:1.0156538486480713] [-0.0082480711862444878:1.0839740037918091] [0.00010145189298782498:0.3790840208530426] [-0.016295166686177254:1.0803853273391724] [-0.0082480711862444878:1.2432509660720825] [-0.0082480711862444878:1.1190156936645508] [0.0026585194282233715:1.2083771228790283] [0.0010998564539477229:2.0810637474060059] [2.145811595255509e-05:0.87441039085388184] [0.004083593375980854:3.6113817691802979] [0.00080405391054227948:3.6113817691802979] [0.0011918852105736732:1.3413134813308716] [0.00010371267126174644:0.37697172164916992] [2.7402616069593932e-06:1.3392715454101562] [0.0015760025708004832:1.6757780313491821] [6.5303024712193292e-06:1.3432493209838867] [4.4895426981383935e-05:0.089767038822174072] [5.0723469030344859e-05:0.1822226345539093] [1.7849987443696591e-06:0.076233521103858948] [4.4895426981383935e-05:0.4947894811630249] [3.4847234928747639e-06:0.48280957341194153] [-0.010913939215242863:1.3252277374267578] [0.00034390640212222934:0.68332737684249878] [-0.13479329645633698:1.3249845504760742] [0.0016687988536432385:1.3277385234832764] [-0.11090336740016937:1.3254709243774414] [0.0026772881392389536:0.7701154351234436] [0.0017552205827087164:0.054817702621221542] [3.2490581361344084e-05:0.75192809104919434] [0.0049203373491764069:0.79364752769470215] [0.00019913743017241359:0.75192809104919434] [-0.0023934843484312296:1.0078091621398926] [0.00028141596703790128:0.52225542068481445] [-0.011882326565682888:1.007399320602417] [0.0041847014799714088:1.0099996328353882] [-0.003942068200558424:1.0099987983703613] [1:7] [0:3.5355339050292969] [1:7] [1:7] [1:7] none none none none none [0.0022171002347022295:1.0047570466995239] [9.7440759418532252e-05:0.0059226267039775848] [4.9487408659842913e-07:1.0011144876480103] [0.0025205439887940884:1.0098358392715454] [1.0675626072043087e-06:1.0031145811080933] none none none none none none none none none none none none none none none [0.0035792929120361805:1.0094583034515381] [4.8055237130029127e-05:0.57763612270355225] [2.2575553884962574e-05:1.0091850757598877] [0.0035792929120361805:1.00999915599823] [0.00011354879097780213:1.0099954605102539] [0.0034204102121293545:5.4980077743530273] [0.00034158362541347742:9.2683677673339844] [1.3771128237749508e-07:1.2979555130004883] [0.0034204102121293545:30.609348297119141] [0.00011703076597768813:30.609348297119141] [9.9071359727531672e-05:4.6236968040466309] [0.00013035988376941532:2.3292269706726074] [1.1541595057451559e-07:4.6236968040466309] [9.9071359727531672e-05:4.6236968040466309] [2.1502544768736698e-05:4.6236968040466309] [0.00069036195054650307:1.2049996852874756] [0.00061980535974726081:0.42510595917701721] [8.1755295866514643e-08:1.2022091150283813] [0.00069036195054650307:1.4084786176681519] [1.7296015357715078e-05:1.2071322202682495] [0:1] [0:0.53452247381210327] [0:1] [0:1] [0:1] [0.0044271401129662991:1.2954999208450317] [0.0015242478111758828:0.57671761512756348] [0.00033214889117516577:1.2799499034881592] [0.0044271401129662991:1.3049963712692261] [0.00036993713001720607:1.304082989692688] none none none none none [-1:6] [0:3.6321215629577637] [-1:6] [-1:6] [-1:6] [0.0025695052463561296:1.1088056564331055] [0.00073836877709254622:0.56892991065979004] [1.6360781955881976e-05:1.0981326103210449] [0.0025695052463561296:1.2895451784133911] [0.00018023727170657367:1.2883471250534058] [0.0026995930820703506:1.1127318143844604] [0.00050908420234918594:0.57136952877044678] [2.6786603484652005e-05:1.0966612100601196] [0.0026995930820703506:1.2926713228225708] [0.0006613135919906199:1.2873120307922363] [0:1] [0:0.54772257804870605] [0:1] [0:1] [0:1] [-0.028086407110095024:1.1484980583190918] [0.00013213712372817099:0.32424765825271606] [-0.031938463449478149:1.1368892192840576] [-0.024781208485364914:1.1645404100418091] [-0.030810847878456116:1.1645404100418091] [0.0023586999159306288:1.5107916593551636] [0.00074937345925718546:0.43965443968772888] [6.447668420150876e-05:1.4289358854293823] [0.0046074921265244484:1.5813535451889038] [0.00041823607170954347:1.5731849670410156] [0.00026427715783938766:1.0092867612838745] [0.00079629302490502596:0.65033185482025146] [5.5993542247279038e-08:1.0092867612838745] [0.00026427715783938766:2.0020899772644043] [3.0067369607422734e-06:2.0020899772644043] [-0.04135783389210701:1.3726680278778076] [0.00085140322335064411:0.31843951344490051] [-0.044881012290716171:1.3648916482925415] [-0.039921022951602936:1.4189136028289795] [-0.044519528746604919:1.3705217838287354] [5.1316659664735198e-05:2.0066177845001221] [0.00011941705452045426:0.96061158180236816] [1.0115596182913578e-07:2.0066177845001221] [5.1316659664735198e-05:3.0092465877532959] [9.8624414022197016e-06:2.0076453685760498] [-0.53846156597137451:1] [0:0.98709625005722046] [-1:1] [0:1] [-1:1] [0.0002358677884330973:1.0078325271606445] [0.00011416660709073767:0.58045881986618042] [3.651956035355397e-07:1.0078325271606445] [0.0002358677884330973:1.009987473487854] [3.3368071399308974e-06:1.0099722146987915] [1.3464535186358262e-05:1.0088390111923218] [0.00012802652781829238:0.53409576416015625] [2.1563923837675247e-06:1.0088390111923218] [1.3464535186358262e-05:1.0106240510940552] [1.3464535186358262e-05:1.0096986293792725] [2.5280003683292307e-05:1.0094969272613525] [0.00016908338875509799:0.70705205202102661] [2.1644395928888116e-06:1.0094969272613525] [2.5280003683292307e-05:1.0099996328353882] [4.0352388168685138e-06:1.0099896192550659] [1.1658422408800106e-05:4.8516178131103516] [0.00034925862564705312:3.3608424663543701] [9.5487401097216207e-08:1.0052523612976074] [1.1658422408800106e-05:7.008882999420166] [1.1658422408800106e-05:2.0061588287353516] none none none none none [0.00030663018696941435:1.0093837976455688] [0.00012853946827817708:0.70821523666381836] [5.9499836879695067e-07:1.0093837976455688] [0.00030663018696941435:1.01298987865448] [1.4747836758033372e-05:1.0107359886169434] [0.00018413629732094705:1.0377551317214966] [7.3810340836644173e-05:0.68607652187347412] [1.1402937616367126e-06:1.0302156209945679] [0.00018413629732094705:1.178156852722168] [1.4571377505490091e-05:1.1719861030578613] [0.0023445955011993647:2.3000216484069824] [0.0019589120056480169:0.14107882976531982] [-0.0028562657535076141:2.2466385364532471] [0.0023445955011993647:2.3604657649993896] [0.0023445955011993647:2.3604657649993896] [0.00011863093095598742:1.5041872262954712] [0.00011283600179012865:0.71544665098190308] [8.7518873215230997e-07:1.5012246370315552] [0.00011863093095598742:1.507561206817627] [7.8195407695602626e-06:1.5029819011688232] [2.6365662051830441e-05:1.0054301023483276] [0.0003686924756038934:0.51500946283340454] [1.3817067667787342e-07:1.0011301040649414] [2.6365662051830441e-05:1.0099115371704102] [1.3817067667787342e-07:1.0048611164093018] [-0.0068139256909489632:1.0070918798446655] [0.00037329824408516288:0.45958209037780762] [-0.009623275138437748:1.0070918798446655] [-0.00079284445382654667:1.009796142578125] [-0.00079284445382654667:1.0094783306121826] [0.00065606978023424745:0.25314030051231384] [0.00039626634679734707:0.49861115217208862] [1.3354316251934506e-05:0.0095969205722212791] [0.0012494362890720367:1.00951087474823] [1.3354316251934506e-05:1.0028109550476074] [0.00064777577063068748:0.92220526933670044] [0.00080177979543805122:0.41751635074615479] [1.8616796296555549e-05:0.50379282236099243] [0.00064777577063068748:1.2596831321716309] [0.00049335701623931527:1.2554991245269775] [0.00077326287282630801:0.29195207357406616] [0.00018410521443001926:0.49901559948921204] [3.318203880553483e-06:0.0099581591784954071] [0.0012914937688037753:1.0093315839767456] [9.5198105555027723e-05:0.0099581591784954071] [0.00058563612401485443:0.75541704893112183] [0.00041375088039785624:0.30105447769165039] [1.666261232458055e-05:0.50907641649246216] [0.0011546096066012979:1.0097246170043945] [1.666261232458055e-05:0.50937700271606445] [0.00057721056509763002:1.0088618993759155] [0.00014211979578249156:0.51811134815216064] [4.0392194478044985e-07:1.0088618993759155] [0.00057721056509763002:1.0099996328353882] [7.7163749665487558e-06:1.0099891424179077] [0.0002763989323284477:1.0060802698135376] [0.00016657930973451585:0.53743743896484375] [5.8214561704517109e-07:1.0028337240219116] [0.0002763989323284477:1.0099697113037109] [1.9923011222999776e-06:1.0085228681564331] [0.00048930372577160597:1.1683906316757202] [1.4858209397061728e-05:0.49625205993652344] [2.5623148758313619e-07:1.1661932468414307] [0.00048930372577160597:1.1694320440292358] [7.1567023951502051e-07:1.1692359447479248] [-0.0088041843846440315:1.4789520502090454] [0.0006804476142860949:0.17852087318897247] [-0.0088041843846440315:1.4710550308227539] [-0.0088041843846440315:1.4863821268081665] [-0.0088041843846440315:1.4826699495315552] [0.00047875626478344202:1.0076755285263062] [6.4067040511872619e-05:0.51803529262542725] [2.3609497645793454e-07:1.0060826539993286] [0.00047875626478344202:1.0099900960922241] [1.2144856555096339e-05:1.009958028793335] [0.0010707031469792128:1.3380240201950073] [4.9503531045047566e-05:0.67484468221664429] [5.8028740568261128e-07:1.3335157632827759] [0.0010707031469792128:1.3432836532592773] [7.7731095871058642e-07:1.3382028341293335] [0.00050047197146341205:4.2428526878356934] [0.00012690790754277259:0.63722759485244751] [1.5777882822476386e-07:4.1824231147766113] [0.00050047197146341205:4.2820320129394531] [1.5777882822476386e-07:4.1878046989440918]
tree_sizes=772 781 677 779 781 678 677 680 679 676 780 784 779 784 775 674 675 675 759 788 788 786 679 783 788 891 889 989 786 785 785 782 782 781 785 895 782 784 768 767 1000 997 996 780 998 1104 1101 872 1084 997 791 900 897 903 794 872 874 887 873 893 1004 1000 898 897 1000 1003 1104 790 871 897 1003 893 1104 896 1002 879 874 999 899 1100 1003 1007 1009 1089 792 1120 1215 999 984 1111 900 1001 1111 894 999 1081 1013 874 1221 977 1008 1216 1011 1212 1212 906 1118 1006 980 1000 1010 1008 997 1105 1234 883 898 1231 1007 1012 1226 1108 1119 1007 886 1117 1094 1113 1110 1012 1200 1120 1016 1107 1118 1113 985 1115 1224 1205 1017 995 1016 1093 1122 1119 1010 1231 1012 1015 1123 1123 1016 1117 1020 1121 1014 1099 1117 993 1010 1121 1015 1009 1117 1016 883 997 1216 1216 1085 1198 1228 1019 1081 1099 1020 976

Tree=0
num_leaves=6
num_cat=0
split_feature=4 4 58 814 14
split_gain=937.138 83.8128 64.8137 5.99697 0.966348
threshold=0.58247774839401256 0.44399808347225195 0.27157127857208258 0.0087553788907825964 0.11373424157500268
decision_type=10 10 2 8 2
left_child=1 4 3 -2 -1
right_child=2 -3 -4 -5 -6
leaf_value=-0.90796431397399224 -1.0289223478644023 -0.94275632874453885 -0.97533741260912254 -1.0071351966406363 -0.88703505690291085
leaf_weight=44.948628813028336 84.006278589367867 49.434621647000313 29.202482312917709 19.456823244690895 74.39367102086544
leaf_count=111 425 159 114 90 152
internal_value=-0.954602 -0.907881 -1.01409 -1.02519 -0.894059
internal_weight=301.443 168.777 132.666 103.463 119.342
internal_count=1051 422 629 515 263
is_linear=0
shrinkage=1


Tree=1
num_leaves=6
num_cat=0
split_feature=4 14 235 4 125
split_gain=849.002 72.4747 63.6728 10.4826 8.29485
threshold=0.58247774839401256 0.059092640876770026 0.55670785903930675 0.7252330780029298 0.097971562296152129
decision_type=10 2 10 10 2
left_child=1 -1 3 -2 -3
right_child=2 4 -4 -5 -6
leaf_value=0.037791176709806508 -0.015172340364849006 0.069261400317574454 0.017997186889843253 -0.040142085267950676 0.093226589334696353
leaf_weight=39.78452605009079 23.065709143877029 44.126014858484268 23.972043946385384 84.065790206193924 90.885920137166977
leaf_count=128 106 111 91 432 183
internal_value=0.0323153 0.0754452 -0.0252107 -0.0350948 0.0860711
internal_weight=305.9 174.796 131.104 107.131 135.012
internal_count=1051 422 629 538 294
is_linear=0
shrinkage=0.03


Tree=2
num_leaves=5
num_cat=0
split_feature=4 4 210 135
split_gain=775.547 90.4196 36.5739 2.00032
threshold=0.60737717151641857 0.44925664365291601 0.1386368125677109 0.5665223002433778
decision_type=10 10 2 8
left_child=1 3 -2 -1
right_child=2 -3 -4 -5
leaf_value=0.089517116147468795 -0.039742443066645698 0.037089055279388258 -0.0032957334251550287 0.070723554813473269
leaf_weight=78.118407055735588 82.585748463869095 61.300201654434204 36.821917191147804 50.908585637807846
leaf_count=148 432 195 159 117
internal_value=0.0309515 0.0684391 -0.0287486 0.0828183
internal_weight=309.735 190.327 119.408 129.027
internal_count=1051 460 591 265
is_linear=0
shrinkage=0.03


Tree=3
num_leaves=6
num_cat=0
split_feature=2 14 59 89 476
split_gain=655.819 74.06 69.0516 17.9105 8.1886
threshold=0.532921463251114 0.053388517349958427 0.26535521447658544 0.69023689627647411 0.0024630480911582713
decision_type=10 2 2 10 10
left_child=1 -1 4 -3 -2
right_child=2 3 -4 -5 -6
leaf_value=0.029129239767966806 -0.015879270877264325 0.055193024090190758 0.024715591387904686 0.082483981711226145 -0.039454077751214442
leaf_weight=45.345936134457588 20.989146113395691 45.696299076080322 20.049170181155205 100.94240103662014 79.97250759601593
leaf_count=148 100 116 71 192 424
internal_value=0.0297053 0.0640774 -0.0247816 0.0745125 -0.034904
internal_weight=312.995 191.985 121.011 146.639 100.962
internal_count=1051 456 595 308 524
is_linear=0
shrinkage=0.03


Tree=4
num_leaves=6
num_cat=0
split_feature=4 4 235 364 810
split_gain=658.796 74.396 48.1798 2.18308 0.874472
threshold=0.60737717151641857 0.44925664365291601 0.55670785903930675 0.21980638056993487 0.0063838134519755849
decision_type=10 10 10 10 8
left_child=1 3 4 -1 -2
right_child=2 -3 -4 -5 -6
leaf_value=0.062880707363015959 -0.0390872711575702 0.03348682196458596 0.013114331511345051 0.080091770727371364 -0.024747115571870319
leaf_weight=51.495215475559235 77.623967036604881 63.35123798251152 20.205704629421234 84.570213362574577 18.508651599287987
leaf_count=113 419 195 78 152 94
internal_value=0.0285598 0.0615684 -0.0279353 0.0741938 -0.036764
internal_weight=315.755 199.417 116.338 136.065 96.1326
internal_count=1051 460 591 265 513
is_linear=0
shrinkage=0.03


Tree=5
num_leaves=5
num_cat=0
split_feature=0 20 740 27
split_gain=611.809 91.4191 29.8424 10.4112
threshold=0.65789079666137706 0.0086234710179269331 0.13909107446670535 0.14447879791259768
decision_type=10 2 2 10
left_child=1 -1 -2 -3
right_child=2 3 -4 -5
leaf_value=0.020958117878560733 -0.038792612700865252 0.052942292135550587 0.00054118343185254785 0.073815797599616456
leaf_weight=50.297405004501343 81.827486768364906 51.722040832042694 20.982624769210815 119.6464699357748
leaf_count=165 450 124 89 227
internal_value=0.0294975 0.0574939 -0.0306926 0.0679465
internal_weight=324.476 221.666 102.81 171.369
internal_count=1055 516 539 351
is_linear=0
shrinkage=0.03


Tree=6
num_leaves=5
num_cat=0
split_feature=4 20 235 107
split_gain=613.512 50.6562 40.4568 11.754
threshold=0.60737717151641857 0.00943921832367778 0.55670785903930675 0.0016060203197412195
decision_type=10 2 10 8
left_child=1 -1 -2 -3
right_child=2 3 -4 -5
leaf_value=0.028060159508002658 -0.036875005494659455 0.04772102149326244 0.0090246269145670861 0.070678430138423232
leaf_weight=44.739785581827164 91.317669063806534 41.217466458678246 20.230095088481903 129.12084524333477
leaf_count=134 506 98 79 238
internal_value=0.0284234 0.0579645 -0.0284112 0.0655218
internal_weight=326.626 215.078 111.548 170.338
internal_count=1055 470 585 336
is_linear=0
shrinkage=0.03


Tree=7
num_leaves=5
num_cat=0
split_feature=4 14 272 496
split_gain=568.943 41.8931 30.8948 10.6237
threshold=0.60737717151641857 0.059092640876770026 0.23979842662811282 0.13759505003690722
decision_type=10 2 2 8
left_child=1 -1 -2 -3
right_child=2 3 -4 -5
leaf_value=0.029100948990613315 -0.00044392703586374117 0.048402120699778658 -0.037292383010870213 0.068541501547949607
leaf_weight=47.933524802327156 28.379843577742577 54.766198039054871 81.457486093044281 115.68980072438717
leaf_count=138 124 125 461 207
internal_value=0.0274377 0.0553869 -0.0279967 0.0624784
internal_weight=328.227 218.39 109.837 170.456
internal_count=1055 470 585 332
is_linear=0
shrinkage=0.03


Tree=8
num_leaves=5
num_cat=0
split_feature=0 20 740 27
split_gain=493.167 72.5757 28.5277 9.09952
threshold=0.65789079666137706 0.0086234710179269331 0.13909107446670535 0.16173955798149112
decision_type=10 2 2 10
left_child=1 -1 -2 -3
right_child=2 3 -4 -5
leaf_value=0.018127009309937457 -0.037849548562262351 0.049612670832696555 0.00093852936661444194 0.066889772872164105
leaf_weight=51.568498358130455 77.298564344644547 82.194190859794617 20.804335668683052 97.59073843061924
leaf_count=165 450 180 89 171
internal_value=0.0265149 0.0503763 -0.0295461 0.0593921
internal_weight=329.456 231.353 98.1029 179.785
internal_count=1055 516 539 351
is_linear=0
shrinkage=0.03


Tree=9
num_leaves=5
num_cat=0
split_feature=4 239 396 365
split_gain=498.4 65.0063 10.0034 6.37501
threshold=0.67934226989746105 0.63383314013481151 0.003435654798522592 0.11337617039680482
decision_type=10 10 8 2
left_child=1 -1 -3 -2
right_child=3 2 -4 -5
leaf_value=0.021915671846911115 -0.037459602700615331 0.04831864019659813 0.066269936948678471 -0.016083546956775972
leaf_weight=63.826507985591888 71.561204671859741 81.865543276071548 91.82657864689827 21.27266962826252
leaf_count=191 426 178 157 103
internal_value=0.0256523 0.0486598 0.0582199 -0.0329448
internal_weight=330.353 237.519 173.692 92.8339
internal_count=1055 526 335 529
is_linear=0
shrinkage=0.03


Tree=10
num_leaves=6
num_cat=0
split_feature=4 4 4 128 615
split_gain=457 49.2736 35.3325 3.46701 1.22841
threshold=0.57149425148963939 0.70596730709075939 0.44399808347225195 0.30143269896507269 0.0058028709609061488
decision_type=10 10 8 2 2
left_child=2 -2 3 -1 -3
right_child=1 4 -4 -5 -6
leaf_value=0.048022184752656585 0.0066933495090360038 -0.037420908386456606 0.028148000871457704 0.063127475649437798 -0.022126871253974893
leaf_weight=55.052010744810104 35.621197953820229 67.50712051987648 52.359928905963898 99.792453199625015 16.994359165430069
leaf_count=110 139 404 140 166 95
internal_value=0.0239239 -0.0224288 0.0508466 0.0581959 -0.0348153
internal_weight=327.327 120.123 207.204 154.844 84.5015
internal_count=1054 638 416 276 499
is_linear=0
shrinkage=0.03


Tree=11
num_leaves=6
num_cat=0
split_feature=4 4 4 56 259
split_gain=427.083 47.7872 32.8654 3.15763 1.31824
threshold=0.57149425148963939 0.70596730709075939 0.44399808347225195 0.040494626387953765 0.0085395220667123812
decision_type=10 10 8 8 2
left_child=2 -2 3 -1 -3
right_child=1 4 -4 -5 -6
leaf_value=0.047469396466367206 0.0064801426050851195 -0.037117420588886736 0.027132100580666296 0.061531562096146027 -0.021541121713110324
leaf_weight=65.903649687767029 35.720752716064453 66.274655610322952 52.722571521997452 90.160259455442429 16.571534037590027
leaf_count=129 139 405 140 147 94
internal_value=0.023207 -0.0220597 0.0489675 0.0560288 -0.0344747
internal_weight=327.353 118.567 208.786 156.064 82.8462
internal_count=1054 638 416 276 499
is_linear=0
shrinkage=0.03


Tree=12
num_leaves=6
num_cat=0
split_feature=4 4 278 126 141
split_gain=399.806 50.8333 29.5835 9.74806 1.60181
threshold=0.61865162849426281 0.47831104695796972 0.16667359322309497 0.07654047012329103 0.09595064073801042
decision_type=10 8 2 8 10
left_child=1 3 4 -1 -2
right_child=2 -3 -4 -5 -6
leaf_value=0.039960492138979169 -0.037089473276878442 0.018496023055682861 0.0067409123138765618 0.058427534327845164 -0.020760009982137336
leaf_weight=56.40371572971344 66.718535095453262 54.334925457835197 18.30023105442524 115.30173389613628 16.023275092244148
leaf_count=119 411 160 79 192 93
internal_value=0.0225329 0.044673 -0.0268022 0.0527146 -0.034392
internal_weight=327.082 226.04 101.042 171.705 82.7418
internal_count=1054 471 583 311 504
is_linear=0
shrinkage=0.03


Tree=13
num_leaves=6
num_cat=0
split_feature=4 4 124 436 615
split_gain=375.374 45.4049 31.982 6.41797 1.43222
threshold=0.57149425148963939 0.70596730709075939 0.33130010962486273 0.16673687100410464 0.0058028709609061488
decision_type=10 10 2 8 2
left_child=2 -2 -1 -4 -3
right_child=1 4 3 -5 -6
leaf_value=0.025445886253988768 0.0062493346343340831 -0.036608067674313155 0.045298992406508615 0.061568987302674016 -0.02072399520839641
leaf_weight=57.838482216000557 35.789559900760651 63.580312967300415 85.38028384745121 67.812319159507751 16.174872219562531
leaf_count=145 139 404 166 105 95
internal_value=0.0218931 -0.0213667 0.0456388 0.0529509 -0.0338689
internal_weight=326.576 115.545 211.031 153.193 79.7552
internal_count=1054 638 416 271 499
is_linear=0
shrinkage=0.03


Tree=14
num_leaves=6
num_cat=0
split_feature=2 324 54 0 6
split_gain=334.292 49.7036 36.4642 7.4549 6.90018
threshold=0.532921463251114 0.0097795655019581335 0.12568870186805728 0.70634454488754284 0.21093717962503436
decision_type=10 2 10 8 8
left_child=2 3 -1 -2 -4
right_child=1 -3 4 -5 -6
leaf_value=0.01775285598940652 -0.012061175399216558 0.021317099519272281 0.039514307395635453 -0.036348817740011648 0.054790565820321109
leaf_weight=46.834175318479538 17.50784632563591 18.204892933368683 73.667371690273285 69.73938837647438 99.902479991316795
leaf_count=132 82 65 154 455 166
internal_value=0.0212877 -0.0224056 0.0422672 -0.0318369 0.0486564
internal_weight=325.856 105.452 220.404 87.2472 173.57
internal_count=1054 602 452 537 320
is_linear=0
shrinkage=0.03


Tree=15
num_leaves=5
num_cat=0
split_feature=4 124 250 125
split_gain=322.673 39.5738 32.6536 12.0368
threshold=0.60737717151641857 0.12655374407768252 0.11561316624283792 0.1357269883155823
decision_type=10 2 8 2
left_child=1 -1 -2 -3
right_child=2 3 -4 -5
leaf_value=0.017132956206506251 0.002797565734174346 0.036381216771548625 -0.034218047163319762 0.054500934302903731
leaf_weight=51.022026017308235 29.779981255531311 70.652582973241806 68.476056054234505 115.07206133008003
leaf_count=139 140 151 441 190
internal_value=0.0225085 0.041448 -0.0229329 0.04792
internal_weight=335.003 236.747 98.256 185.725
internal_count=1061 480 581 341
is_linear=0
shrinkage=0.03


Tree=16
num_leaves=5
num_cat=0
split_feature=4 4 250 49
split_gain=303.335 37.9676 31.8083 4.109
threshold=0.60737717151641857 0.44925664365291601 0.11561316624283792 0.1943837180733681
decision_type=10 8 8 10
left_child=1 3 -2 -1
right_child=2 -3 -4 -5
leaf_value=0.041798588735003445 0.0027125602842107423 0.021678043906180087 -0.033914761615681917 0.055328121190597636
leaf_weight=87.976302266120911 29.822498261928558 74.930653855204582 67.046350836753845 74.319022446870804
leaf_count=166 140 198 441 116
internal_value=0.0218989 0.0401399 -0.0225727 0.0483868
internal_weight=334.095 237.226 96.8688 162.295
internal_count=1061 480 581 282
is_linear=0
shrinkage=0.03


Tree=17
num_leaves=5
num_cat=0
split_feature=4 19 250 125
split_gain=285.527 37.73 30.9909 6.50256
threshold=0.60737717151641857 0.17279223352670672 0.11561316624283792 0.15883336961269381
decision_type=10 2 8 2
left_child=1 3 -2 -1
right_child=2 -3 -4 -5
leaf_value=0.038500567821147184 0.0026302536621314694 0.019003047831444689 -0.033619679796730292 0.053250045657587654
leaf_weight=82.6263327896595 29.863702341914177 66.731688961386681 65.635913506150246 88.073166146874428
leaf_count=168 140 172 441 140
internal_value=0.0213242 0.0389207 -0.0222187 0.0464638
internal_weight=332.931 237.431 95.4996 170.699
internal_count=1061 480 581 308
is_linear=0
shrinkage=0.03


Tree=18
num_leaves=6
num_cat=0
split_feature=0 124 740 49 139
split_gain=270.592 52.6225 16.7442 16.538 20.1156
threshold=0.6807212531566621 0.07451320439577104 0.13909107446670535 0.16115738451480868 0.48823644220829016
decision_type=10 2 2 10 10
left_child=1 -1 -2 4 -3
right_child=2 3 -4 -5 -6
leaf_value=0.00915234803557048 -0.034342745978648968 0.047987197315305007 0 0.053075802428401334 0.020763507065471479
leaf_weight=54.228810355067253 62.557277888059616 50.761127963662148 16.32021789252758 90.837811172008514 56.953731775283813
leaf_count=167 438 89 77 147 143
internal_value=0.0207714 0.035905 -0.0273823 0.0430541 0.0340542
internal_weight=331.659 252.781 78.8775 198.553 107.715
internal_count=1061 546 515 379 232
is_linear=0
shrinkage=0.03


Tree=19
num_leaves=6
num_cat=0
split_feature=4 20 235 129 810
split_gain=254.672 39.0402 28.4555 9.77446 4.77394
threshold=0.61865162849426281 0.00943921832367778 0.55670785903930675 0.10087969899177553 0.0061963978223502645
decision_type=10 2 10 2 10
left_child=1 -1 4 -3 -2
right_child=2 3 -4 -5 -6
leaf_value=0.012857949655885664 -0.035450972147693029 0.031100274929675195 0.0092446727139252997 0.047976935957787667 -0.012985703441871794
leaf_weight=53.015342324972153 56.310624271631241 61.067266017198563 18.744630739092827 126.50535133481026 14.586022794246672
leaf_count=146 399 130 78 217 91
internal_value=0.0202445 0.0363104 -0.0226341 0.0427561 -0.0312826
internal_weight=330.229 240.588 89.6413 187.573 70.8966
internal_count=1061 493 568 347 490
is_linear=0
shrinkage=0.03


Tree=20
num_leaves=6
num_cat=0
split_feature=4 235 239 812 396
split_gain=270.495 37.261 26.9063 11.4731 7.33161
threshold=0.57149425148963939 0.55670785903930675 0.65799346566200267 0.0017820814973674717 0.0034237446961924438
decision_type=10 10 10 8 8
left_child=2 3 -1 -2 -4
right_child=1 -3 4 -5 -6
leaf_value=0.01787515337416681 -0.035169601163282938 0.0099539983112482636 0.034760362064088966 -0.0043608291313822342 0.050392992495744984
leaf_weight=52.758872449398041 68.956148356199265 26.59004844725132 72.570688828825951 14.602809086441992 86.959361687302589
leaf_count=130 478 100 145 82 140
internal_value=0.0176605 -0.0202767 0.0374179 -0.0300781 0.0436359
internal_weight=322.438 110.149 212.289 83.559 159.53
internal_count=1075 660 415 560 285
is_linear=0
shrinkage=0.03


Tree=21
num_leaves=6
num_cat=0
split_feature=0 54 367 73 129
split_gain=233.541 52.1545 18.3713 11.9102 14.5229
threshold=0.65789079666137706 0.12502690404653552 0.068528037518262877 0.0099123385734856146 0.10830254107713701
decision_type=10 10 2 2 2
left_child=1 -1 -2 4 -3
right_child=2 3 -4 -5 -6
leaf_value=0.0057716742901798949 -0.033816918960527319 0.017894540112079041 -0.00041330590049497577 0.048582326639662561 0.042546080787767129
leaf_weight=53.351732328534126 62.301391571760178 45.154696896672249 20.575938105583191 87.17531031370163 51.979620739817619
leaf_count=164 463 111 99 143 95
internal_value=0.0172386 0.0323574 -0.0258064 0.0398995 0.0315383
internal_weight=320.539 237.661 82.8773 184.31 97.1343
internal_count=1075 513 562 349 206
is_linear=0
shrinkage=0.03


Tree=22
num_leaves=5
num_cat=0
split_feature=4 210 694 496
split_gain=243.489 36.6335 25.7269 4.22995
threshold=0.57149425148963939 0.14155381172895434 0.06695860251784326 0.13864786922931674
decision_type=10 2 2 8
left_child=2 -2 -1 -4
right_child=1 -3 3 -5
leaf_value=0.016203663459863151 -0.034345495068453878 0.00074489502679617767 0.032414129782004843 0.045956060024585223
leaf_weight=51.750093072652817 62.717475689947605 44.69576970487833 55.918237999081612 103.53017480671406
leaf_count=129 462 198 113 173
internal_value=0.0168302 -0.0197335 0.0355021 0.041532
internal_weight=318.612 107.413 211.199 159.448
internal_count=1075 660 415 286
is_linear=0
shrinkage=0.03


Tree=23
num_leaves=6
num_cat=0
split_feature=0 54 139 177 740
split_gain=210.801 53.5275 19.0268 14.1243 11.7078
threshold=0.6807212531566621 0.12502690404653552 0.49362351000308996 0.1328820809721947 0.13909107446670535
decision_type=10 8 8 10 2
left_child=1 -1 -3 -4 -2
right_child=4 2 3 -5 -6
leaf_value=0.00052478975634015902 -0.033293365973325509 0.048020294950777379 0.016097259316140131 0.038571376866692791 -0.003011795048699706
leaf_weight=45.82256492972374 58.970255002379417 84.435143753886223 54.566966652870178 56.839947238564491 15.863331303000448
leaf_count=152 460 137 140 108 78
internal_value=0.0164418 0.0300729 0.0368725 0.0279382 -0.0271964
internal_weight=316.498 241.665 195.842 111.407 74.8336
internal_count=1075 537 385 248 538
is_linear=0
shrinkage=0.03


Tree=24
num_leaves=6
num_cat=0
split_feature=238 43 139 97 436
split_gain=195.074 89.3757 27.4103 11.0145 3.07933
threshold=0.7431677281856538 0.048649538308382041 0.60850682854652416 0.014838583301752807 0.13967666774988177
decision_type=10 10 10 2 8
left_child=1 3 4 -1 -2
right_child=2 -3 -4 -5 -6
leaf_value=-0.0049094721427814384 0.033353663933231865 0.031725538588008584 0.016838606998550859 -0.036830744229346839 0.046074622657343557
leaf_weight=13.003792747855185 62.430741861462593 24.941340520977974 69.524122007191181 68.413793243467808 76.050246246159077
leaf_count=51 131 60 199 503 131
internal_value=0.0160637 -0.0167877 0.0329333 -0.0320358 0.0407275
internal_weight=314.364 106.359 208.005 81.4176 138.481
internal_count=1075 614 461 554 262
is_linear=0
shrinkage=0.03


Tree=25
num_leaves=7
num_cat=0
split_feature=0 124 25 49 189 198
split_gain=174.225 60.3002 31.8461 17.8063 30.8393 2.50439
threshold=0.73032537102699291 0.069222677499055876 0.17776151746511462 0.13971936702728274 0.31858390569686895 0.13163520395755771
decision_type=10 2 10 10 2 8
left_child=1 2 -1 4 -3 -2
right_child=5 3 -4 -5 -6 -7
leaf_value=-0.020453380314391457 -0.014483677647298536 0.039687786664639575 0.022045230655217563 0.045687801907661807 0.0060383161129616888 -0.034308087828993084
leaf_weight=30.011225208640099 12.432545773684977 61.746672347187996 31.422155849635601 88.561674043536186 42.821322783827782 44.065321236848831
leaf_count=128 89 117 85 153 125 353
internal_value=0.0166204 0.0272231 0.00104863 0.0354235 0.0262379 -0.0305343
internal_weight=311.061 254.563 61.4334 193.13 104.568 56.4979
internal_count=1050 608 213 395 242 442
is_linear=0
shrinkage=0.03


Tree=26
num_leaves=7
num_cat=0
split_feature=0 124 53 49 411 199
split_gain=165.582 57.1951 30.2053 17.1346 25.7697 2.62659
threshold=0.73032537102699291 0.069222677499055876 0.13454850763082507 0.13971936702728274 0.003271944355219603 0.11856773868203165
decision_type=10 2 10 10 8 8
left_child=1 2 -1 4 -3 -2
right_child=5 3 -4 -5 -6 -7
leaf_value=-0.020400874285122064 -0.013872274739426814 0.011901681444627943 0.021050282862951866 0.044649149803760071 0.042609615973304711 -0.034125124220612424
leaf_weight=29.280056595802307 12.133596517145632 59.483491636812687 32.052545450627804 87.935854062438011 44.855669304728508 43.198363184928894
leaf_count=131 88 161 82 153 81 354
internal_value=0.0162361 0.0265219 0.00101112 0.0345345 0.0255247 -0.0302753
internal_weight=308.94 253.608 61.3326 192.275 104.339 55.332
internal_count=1050 608 213 395 242 442
is_linear=0
shrinkage=0.03


Tree=27
num_leaves=8
num_cat=0
split_feature=89 44 4 19 210 126 827
split_gain=158.312 52.439 36.911 34.3269 18.3991 3.17518 2.42204
threshold=0.35656966269016271 0.044017227366566665 0.44925664365291601 0.075717303901910796 0.25120250880718237 0.085414636880159392 1.0000782012939455
decision_type=10 10 10 2 2 8 10
left_child=1 4 5 -4 6 -2 -1
right_child=2 -3 3 -5 -6 -7 -8
leaf_value=-0.037002895494154441 0.031211168763174296 0.02858261850532369 0.030284010836375264 -0.010248840787891123 0.0030739549040844174 0.044265258652852732 -0.017344180687578873
leaf_weight=50.41063579171896 52.367406636476517 18.113111190497875 42.332035966217518 31.80545162409544 14.200180046260355 84.38721852004528 13.08478970825672
leaf_count=384 102 45 99 129 58 141 92
internal_value=0.0158686 -0.0158932 0.0303758 0.0127906 -0.0266839 0.0396382 -0.033516
internal_weight=306.701 95.8087 210.892 74.1375 77.6956 136.755 63.4954
internal_count=1050 579 471 228 534 243 476
is_linear=0
shrinkage=0.03


Tree=28
num_leaves=6
num_cat=0
split_feature=4 159 189 53 411
split_gain=150.95 49.0363 22.9137 11.7151 4.04511
threshold=0.70596730709075939 0.030889380723237995 0.32737700641155248 0.13314588367938998 0.0032394825248047714
decision_type=10 2 2 8 8
left_child=1 -1 4 -2 -3
right_child=3 2 -4 -5 -6
leaf_value=0.00035740637614155676 -0.033626339980145567 0.032283488800452141 0.016229980143149247 -0.00027634950924164035 0.046027839236329283
leaf_weight=53.6681117862463 46.827351205050945 63.407973289489746 56.65945116430521 12.983157217502592 70.725752353668213
leaf_count=178 410 130 145 70 117
internal_value=0.0155236 0.0259961 0.0330904 -0.0267573 0.0399286
internal_weight=304.272 244.461 190.793 59.8105 134.134
internal_count=1050 570 392 480 247
is_linear=0
shrinkage=0.03


Tree=29
num_leaves=6
num_cat=0
split_feature=0 14 189 211 525
split_gain=143.911 52.1853 25.8271 7.41354 2.91554
threshold=0.73032537102699291 0.026538202539086345 0.32737700641155248 0.099809542298316969 0.00561241782270372
decision_type=10 2 2 8 2
left_child=1 -1 3 -3 -2
right_child=4 2 -4 -5 -6
leaf_value=-0.0053251903422844773 -0.033701108874153812 0.030042674459422186 0.014333276057465604 0.046000708384733698 -0.012377749856781662
leaf_weight=42.247412145137787 40.720302611589432 75.51227767765522 64.252915553748608 67.919650256633759 11.428950287401674
leaf_count=158 355 159 176 115 87
internal_value=0.0151745 0.0246639 0.0308325 0.0379693 -0.029631
internal_weight=302.082 249.932 207.685 143.432 52.1493
internal_count=1050 608 450 274 442
is_linear=0
shrinkage=0.03


Tree=30
num_leaves=6
num_cat=0
split_feature=2 45 122 709 367
split_gain=162.854 30.1248 24.9448 8.84905 5.96432
threshold=0.5253548026084901 0.090278252959251418 0.052918672561645515 3.5000000000000004 0.072050929069519057
decision_type=10 10 2 2 2
left_child=1 -1 4 -3 -2
right_child=2 3 -4 -5 -6
leaf_value=0.011567649909439435 -0.034534533525178025 0.025901979137048153 0.011331572323965776 0.042994937391948575 -0.0090298769789951359
leaf_weight=74.719780042767525 53.314874827861786 62.857703417539597 15.14631652086973 77.533550947904587 12.760613337159155
leaf_count=189 461 139 62 135 63
internal_value=0.0138042 0.0274696 -0.0220992 0.0356853 -0.0300407
internal_weight=296.333 215.111 81.2218 140.391 66.0755
internal_count=1049 463 586 274 524
is_linear=0
shrinkage=0.03


Tree=31
num_leaves=6
num_cat=0
split_feature=2 49 139 58 810
split_gain=154.523 31.3354 43.5078 25.7538 9.96794
threshold=0.5253548026084901 0.1643628999590874 0.60850682854652416 0.40619504451751715 0.00663068168796599
decision_type=10 10 10 2 10
left_child=1 2 -1 4 -2
right_child=3 -3 -4 -5 -6
leaf_value=0.028584363287680246 -0.035109648665111043 0.040260339347803223 -0.0092227016468687788 0.013369557784354519 -0.0029316996272567065
leaf_weight=84.357522532343864 53.977605924010277 90.687286868691444 39.00481890141964 14.217135995626448 11.749245144426821
leaf_count=175 458 167 121 50 78
internal_value=0.0135024 0.0267952 0.0165318 -0.021795 -0.0297125
internal_weight=293.994 214.05 123.362 79.944 65.7269
internal_count=1049 463 296 586 536
is_linear=0
shrinkage=0.03


Tree=32
num_leaves=6
num_cat=0
split_feature=2 39 58 47 813
split_gain=146.67 29.5184 24.9138 11.3466 9.85812
threshold=0.5253548026084901 0.076460983604192748 0.40619504451751715 0.051298012956976898 0.009991493076086046
decision_type=10 2 2 10 8
left_child=1 -1 4 -3 -2
right_child=2 3 -4 -5 -6
leaf_value=0.0069748954822296807 -0.034859782045051968 0.021568742855448391 0.012944236371740537 0.03957757314409327 -0.002603856641384641
leaf_weight=56.086469277739525 52.865235976874828 61.099793940782547 14.275701865553854 95.627831071615219 11.552425988018511
leaf_count=156 460 134 50 173 76
internal_value=0.0132106 0.026153 -0.0214909 0.0328332 -0.0294326
internal_weight=291.507 212.814 78.6934 156.728 64.4177
internal_count=1049 463 586 307 536
is_linear=0
shrinkage=0.03


Tree=33
num_leaves=6
num_cat=0
split_feature=2 27 59 810 125
split_gain=139.276 28.4294 26.2822 9.92772 8.90353
threshold=0.5253548026084901 0.15281330794095996 0.34059607982635504 0.00663068168796599 0.13746464252471927
decision_type=10 10 2 10 2
left_child=1 -1 3 -2 -3
right_child=2 4 -4 -5 -6
leaf_value=0.0099804006772143388 -0.034758479911058217 0.022090095124329051 0.015192157775764872 -0.0024695869395145657 0.039720463778472388
leaf_weight=73.46967402100563 52.296762697398663 50.597542151808739 13.54466227442026 11.61980766057968 87.486288592219353
leaf_count=190 463 113 45 78 160
internal_value=0.0129305 0.0255359 -0.0211916 -0.029248 0.0335734
internal_weight=289.015 211.554 77.4612 63.9166 138.084
internal_count=1049 463 586 541 273
is_linear=0
shrinkage=0.03


Tree=34
num_leaves=6
num_cat=0
split_feature=2 49 139 59 813
split_gain=132.22 29.8597 41.0273 25.3944 10.2642
threshold=0.5253548026084901 0.1643628999590874 0.60850682854652416 0.34059607982635504 0.0099844760261476057
decision_type=10 10 10 2 10
left_child=1 2 -1 4 -2
right_child=3 -3 -4 -5 -6
leaf_value=0.026766688065561772 -0.03457969944507322 0.038265268179051966 -0.010047411801722354 0.014708724324344677 -0.0014238453725010662
leaf_weight=83.080916911363602 51.386196531355381 88.358808994293213 38.943010598421097 13.602115973830221 11.253260277211664
leaf_count=175 465 167 121 45 76
internal_value=0.0126534 0.0249244 0.0149097 -0.0208976 -0.0289749
internal_weight=286.624 210.383 122.024 76.2416 62.6395
internal_count=1049 463 296 586 541
is_linear=0
shrinkage=0.03


Tree=35
num_leaves=7
num_cat=0
split_feature=4 235 159 343 298 446
split_gain=131.311 41.5773 25.6837 13.2883 4.50615 4.03312
threshold=0.52784520387649547 0.67238253355026256 0.069370836019516005 0.50983595848083507 0.66836485266685497 0.0030330503359436993
decision_type=10 10 2 2 2 8
left_child=2 3 -1 4 -2 -4
right_child=1 -3 5 -5 -6 -7
leaf_value=0.0093049771328527313 -0.035878387669736028 0.018523268552597331 0.027927405906064077 -0.0017336580871412078 -0.012189068018465985 0.041230274350188445
leaf_weight=49.507918775081635 46.886711567640305 25.912596046924591 62.469745770096779 19.109634131193161 12.610489547252653 69.66063866019249
leaf_count=124 404 78 128 108 93 123
internal_value=0.0130086 -0.0136027 0.0283943 -0.0244811 -0.0313898 0.0353105
internal_weight=286.158 104.519 181.638 78.6068 59.4972 132.13
internal_count=1058 683 375 605 497 251
is_linear=0
shrinkage=0.03


Tree=36
num_leaves=6
num_cat=0
split_feature=0 159 4 740 81
split_gain=126.357 42.6379 14.5722 8.72303 1.93194
threshold=0.6807212531566621 0.028614523820579055 0.44925664365291601 0.13909107446670535 0.0069370598066598186
decision_type=10 2 10 2 8
left_child=1 -1 4 -2 -3
right_child=3 2 -4 -5 -6
leaf_value=-0.0029054306157474236 -0.032906667459504033 0.027888721530212771 0.016447768880566847 -0.0044091634656716712 0.039698843439483607
leaf_weight=44.8411725461483 43.677319370210171 46.252123713493347 60.129432618618011 14.403197526931761 74.268164604902267
leaf_count=149 450 95 152 78 134
internal_value=0.0127385 0.0229286 0.0294044 -0.0262878 0.0355567
internal_weight=283.571 225.491 180.65 58.0805 120.52
internal_count=1058 530 381 528 229
is_linear=0
shrinkage=0.03


Tree=37
num_leaves=6
num_cat=0
split_feature=36 129 4 54 34
split_gain=123.033 33.751 31.816 13.0949 6.46662
threshold=0.017636672593653206 0.20680155605077746 0.52533113956451427 0.12536945194005969 0.0095600178465247172
decision_type=8 2 10 10 2
left_child=1 3 4 -1 -2
right_child=2 -3 -4 -5 -6
leaf_value=-0.035043337853657569 0.025538423136256604 0.018981158443900099 0.0028191983519967054 -0.0019725695594759525 0.039916821151989995
leaf_weight=50.57464787364006 90.487398907542229 16.341474741697311 45.761920414865017 15.020297825336455 62.730114355683327
leaf_count=454 191 52 192 55 114
internal_value=0.0124767 -0.0182042 0.0252135 -0.0278392 0.0317431
internal_weight=280.916 81.9364 198.979 65.5949 153.218
internal_count=1058 561 497 509 305
is_linear=0
shrinkage=0.03


Tree=38
num_leaves=6
num_cat=0
split_feature=36 125 124 54 407
split_gain=116.923 32.4204 30.4612 14.6151 7.95022
threshold=0.017636672593653206 0.24449749290943149 0.26689031720161444 0.12536945194005969 0.00077720906119793664
decision_type=8 2 2 10 10
left_child=1 3 -2 -1 -4
right_child=2 -3 4 -5 -6
leaf_value=-0.034902990377860398 0.0041488237098550335 0.019021725831577407 0.022042692764246318 0 0.037877527839875122
leaf_weight=50.274305090308189 50.643619664013386 15.923575982451437 61.327921457588673 14.619364827871321 85.50263500213623
leaf_count=461 189 47 143 53 165
internal_value=0.0122238 -0.0179136 0.0246614 -0.0273555 0.031559
internal_weight=278.291 80.8172 197.474 64.8937 146.831
internal_count=1058 561 497 514 308
is_linear=0
shrinkage=0.03


Tree=39
num_leaves=6
num_cat=0
split_feature=0 20 19 423 162
split_gain=110.953 38.8879 12.1368 8.70119 2.39867
threshold=0.6807212531566621 0.0086234710179269331 0.15789005160331729 0.0098726307041943091 0.00047507714771199977
decision_type=10 2 2 2 2
left_child=1 -1 4 -2 -3
right_child=3 2 -4 -5 -6
leaf_value=0 -0.03183962242370466 0.025960127807732512 0.014622807470116671 -0.001501916050981202 0.038252083080005758
leaf_weight=55.956618756055832 43.152018941938877 45.122235760092735 45.808718636631966 11.976474046707152 73.865576654672623
leaf_count=180 428 97 114 100 139
internal_value=0.0119675 0.0215053 0.0288038 -0.0256603 0.033971
internal_weight=275.882 220.753 164.797 55.1285 118.988
internal_count=1058 530 350 528 236
is_linear=0
shrinkage=0.03


Tree=40
num_leaves=8
num_cat=0
split_feature=89 4 44 25 826 681 470
split_gain=102.276 33.7929 31.7473 29.3997 24.7907 3.5137 2.98607
threshold=0.22005061060190204 0.44925664365291601 0.044017227366566665 0.28173944354057318 0.0026236835401505236 0.0028959955088794236 0.0057310413103550681
decision_type=10 10 10 10 10 8 2
left_child=2 5 6 4 -3 -2 -1
right_child=1 3 -4 -5 -6 -7 -8
leaf_value=-0.036192201009938384 0.023357906089059251 0.016453064215506772 0.019199862672964963 0.031456474043523884 -0.021271976577250135 0.036542534734472255 -0.013037556506043135
leaf_weight=39.260333046317101 45.315328747034073 27.520932525396347 12.709060460329054 30.527046494185925 33.447793744504452 80.901265203952789 10.02636234462261
leaf_count=377 99 90 35 74 160 155 82
internal_value=0.0123982 0.0220972 -0.021234 0.00787294 -0.00401034 0.0321476 -0.0321331
internal_weight=279.708 217.712 61.9958 91.4958 60.9687 126.217 49.2867
internal_count=1072 578 494 324 250 254 459
is_linear=0
shrinkage=0.03


Tree=41
num_leaves=8
num_cat=0
split_feature=89 4 639 44 376 681 77
split_gain=97.3198 32.6439 31.2543 30.6266 20.39 3.42394 3.13982
threshold=0.22005061060190204 0.44925664365291601 0.1373303681612015 0.044017227366566665 0.0027625290676951413 0.0028959955088794236 0.41652545332908636
decision_type=10 10 2 10 8 8 10
left_child=3 5 4 6 -3 -2 -1
right_child=1 2 -4 -5 -6 -7 -8
leaf_value=-0.036146025015282877 0.022872032323873227 0.010639128955073383 0.025797451896365602 0.018672383727474599 -0.027600462423446478 0.035952070905655414 -0.012829237492523727
leaf_weight=38.017089851200581 44.916958585381508 23.232981026172638 43.680477760732174 12.704356007277964 24.483618557453156 79.796258136630058 10.265304595232008
leaf_count=365 99 83 121 35 120 155 94
internal_value=0.0121474 0.0216116 0.00765285 -0.0209552 -0.00883768 0.0315799 -0.0318539
internal_weight=277.097 216.11 91.3971 60.9868 47.7166 124.713 48.2824
internal_count=1072 578 324 494 203 254 459
is_linear=0
shrinkage=0.03


Tree=42
num_leaves=8
num_cat=0
split_feature=89 4 44 639 23 77 128
split_gain=92.594 31.5702 29.5436 29.4823 17.6866 3.21431 3.15509
threshold=0.22005061060190204 0.44925664365291601 0.044017227366566665 0.13755542039871219 0.25918291509151464 0.41712318360805517 0.30586741864681249
decision_type=10 10 10 2 2 10 2
left_child=2 6 5 4 -3 -1 -2
right_child=1 3 -4 -5 -6 -7 -8
leaf_value=-0.035923985967304499 0.023219686300498595 -0.025271551202054907 0.018161322536244619 0.025607339920348877 0.0098472720898191909 -0.012276111430492936 0.035723175438786267
leaf_weight=37.263635501265526 49.689487427473068 25.309523411095142 12.698232211172579 42.225539423525333 23.783483952283859 10.044262290000914 73.513574659824371
leaf_count=366 108 139 35 114 71 93 146
internal_value=0.0118991 0.0211344 -0.0206764 0.00743142 -0.00810159 -0.0315717 0.0310287
internal_weight=274.528 214.522 60.0061 91.3185 49.093 47.3079 123.203
internal_count=1072 578 494 324 210 459 254
is_linear=0
shrinkage=0.03


Tree=43
num_leaves=6
num_cat=0
split_feature=4 4 249 51 23
split_gain=84.9015 32.07 25.9974 10.7708 6.30039
threshold=0.70596730709075939 0.44925664365291601 0.40014362335205084 0.046913435682654388 0.5077686905860902
decision_type=10 10 2 10 2
left_child=1 4 -3 -2 -1
right_child=3 2 -4 -5 -6
leaf_value=0.018243217794075641 -0.032119035026536236 0.017338368236666863 -0.015215631673862938 0.0019884579753463322 0.033801174884693967
leaf_weight=45.327882692217827 36.675235442817211 60.028372749686241 33.278290174901485 9.5165295004844648 86.996720299124718
leaf_count=104 437 170 128 56 177
internal_value=0.011663 0.0192874 0.00553054 -0.024881 0.0287611
internal_weight=271.823 225.631 93.3067 46.1918 132.325
internal_count=1072 579 298 493 281
is_linear=0
shrinkage=0.03


Tree=44
num_leaves=8
num_cat=0
split_feature=89 4 25 44 162 681 77
split_gain=85.3604 29.2068 27.9524 27.8645 22.7548 3.56858 3.24957
threshold=0.22005061060190204 0.44925664365291601 0.29522614181041723 0.044017227366566665 0.0010062986402772369 0.0028959955088794236 0.41712318360805517
decision_type=10 10 10 10 2 8 10
left_child=3 5 4 6 -3 -2 -1
right_child=1 2 -4 -5 -6 -7 -8
leaf_value=-0.035727232587802825 0.021183667463264572 -0.021739965305103821 0.031129128036866804 0.017307622892833201 0.013909740919874791 0.03447460165717639 -0.011769398403113416
leaf_weight=35.801383055746555 43.452847018837929 31.573026537895203 28.756736554205418 12.63320431858301 30.564096532762051 76.739657744765282 9.8064233511686307
leaf_count=366 99 137 68 35 119 155 93
internal_value=0.0114228 0.0203169 0.00715187 -0.0203582 -0.00402438 0.0300078 -0.0312608
internal_weight=269.327 211.086 90.8939 58.241 62.1371 120.193 45.6078
internal_count=1072 578 324 494 256 254 459
is_linear=0
shrinkage=0.03


Tree=45
num_leaves=9
num_cat=0
split_feature=20 348 40 60 6 441 4 846
split_gain=85.6371 37.0804 37.4838 23.6156 10.8333 4.29808 3.02304 1.51168
threshold=0.0086234710179269331 0.61892199516296398 0.13560789823532107 0.10880650579929353 0.24583312869071963 0.002862300607375801 0.65778380632400524 0.0031804897589609031
decision_type=2 2 10 2 10 10 10 10
left_child=1 2 4 5 6 -2 -1 -8
right_child=3 -3 -4 -5 -6 -7 7 -9
leaf_value=-0.048672503975366391 0.039705244062787484 0.025413586957898741 0.024028859546157511 0.0089995960503702708 -0.0014575754436804407 0.025138561572468042 -0.031963218770129677 -0.011133378070298128
leaf_weight=16.660404570400715 55.982011139392853 19.007898181676865 12.983122587203978 59.787054792046547 10.996112182736395 53.777166962623596 26.38781226426363 7.9788529574871054
leaf_count=76 113 50 29 182 74 127 311 89
internal_value=0.0120147 -0.0107664 -0.0203461 0.0247239 -0.0301068 0.032995 -0.0358456 -0.0280029
internal_weight=263.56 94.0142 75.0063 169.546 62.0232 109.759 51.0271 34.3667
internal_count=1051 629 579 422 550 240 476 400
is_linear=0
shrinkage=0.03


Tree=46
num_leaves=9
num_cat=0
split_feature=20 348 40 63 6 269 4 846
split_gain=81.3933 35.3214 35.932 21.9992 10.5662 3.67493 2.62065 1.58485
threshold=0.0086234710179269331 0.61892199516296398 0.13560789823532107 0.12097891047596933 0.24583312869071963 0.89097386598587047 0.65778380632400524 0.0031837747665122156
decision_type=2 2 10 2 10 10 10 10
left_child=1 2 4 5 6 -2 -1 -8
right_child=3 -3 -4 -5 -6 -7 7 -9
leaf_value=-0.047746880748998619 0.024274749242922739 0.024681601445258945 0.023423854415251293 0.009390890377821608 -0.0014183126281661752 0.038346099561886914 -0.031815317859609685 -0.01058788452020348
leaf_weight=16.495750851929188 47.730595521628857 19.01402086019516 12.945307478308676 61.804297044873238 10.989281184971331 58.747388541698456 25.867689795792103 7.7762486785650244
leaf_count=76 114 50 29 188 74 120 313 87
internal_value=0.0117556 -0.0105695 -0.0200261 0.0241832 -0.0296979 0.0324625 -0.0354537 -0.0277892
internal_weight=261.371 93.0883 74.0743 168.282 61.129 106.478 50.1397 33.6439
internal_count=1051 629 579 422 550 234 476 400
is_linear=0
shrinkage=0.03


Tree=47
num_leaves=7
num_cat=0
split_feature=36 54 49 71 358 812
split_gain=78.0157 33.6045 22.6105 27.278 23.9061 10.9153
threshold=0.016610213555395607 0.0099072703160345572 0.17952109128236773 0.27646166086196905 0.0097724953666329401 0.0018811667687259617
decision_type=8 10 10 8 2 8
left_child=1 5 3 4 -2 -1
right_child=2 -3 -4 -5 -6 -7
leaf_value=-0.035755886293984365 -0.012998443417035595 0.013141469384681788 0.036551717938671742 0.03467060454709843 0.018813672043365176 0
leaf_weight=38.619168281555176 38.306325659155846 25.360362023115158 63.341668486595154 38.190533749759197 44.815844438970089 10.474924266338347
leaf_count=414 159 78 135 82 118 65
internal_value=0.0115063 -0.0141637 0.021958 0.0139789 0.0039947 -0.0285489
internal_weight=259.109 74.4545 184.654 121.313 83.1222 49.0941
internal_count=1051 557 494 359 277 479
is_linear=0
shrinkage=0.03


Tree=48
num_leaves=9
num_cat=0
split_feature=20 348 43 63 6 269 4 846
split_gain=74.4981 33.1362 32.7265 20.9668 11.0931 3.79823 1.9986 1.66748
threshold=0.0086234710179269331 0.61892199516296398 0.16131892800331118 0.12097891047596933 0.24857391417026523 0.89097386598587047 0.65778380632400524 0.0031872022664174442
decision_type=2 2 10 2 10 10 10 10
left_child=1 2 4 5 6 -2 -1 -8
right_child=3 -3 -4 -5 -6 -7 7 -9
leaf_value=-0.046096904121451142 0.023234778385913465 0.02379657980399125 0.021950910603649357 0.0087996286768749973 0 0.037479238161147128 -0.031616221783868477 -0.0098875198088380512
leaf_weight=16.707842923700809 47.008550107479095 18.969398707151413 12.805108770728109 61.290382713079453 10.343322426080702 57.070452451705933 24.929861210286617 7.5192428752779952
leaf_count=78 114 50 29 188 71 120 315 86
internal_value=0.0112754 -0.0102952 -0.0196465 0.0232617 -0.0290614 0.0314706 -0.0348968 -0.0274757
internal_weight=256.644 91.2748 72.3054 165.369 59.5003 104.079 49.1569 32.4491
internal_count=1051 629 579 422 550 234 479 401
is_linear=0
shrinkage=0.03


Tree=49
num_leaves=8
num_cat=0
split_feature=36 54 49 71 25 329 127
split_gain=72.0743 31.3255 21.796 25.9561 22.6089 16.5353 9.12861
threshold=0.016610213555395607 0.0099072703160345572 0.17952109128236773 0.27646166086196905 0.27767175436019903 0.25047706067562109 0.0059395402204245338
decision_type=8 10 10 8 8 10 2
left_child=1 6 3 4 5 -2 -1
right_child=2 -3 -4 -5 -6 -7 -8
leaf_value=-0.034894024618335261 -0.025281929228504776 0.0123909221478299 0.035686755998628722 0.033743387690327947 0.023623199445717426 0.0078169422818699218 -0.0012749250439700178
leaf_weight=37.344950400292873 25.380610853433609 25.193436548113823 61.726818762719631 37.371764950454235 30.836849376559258 26.309710912406445 10.226649552583693
leaf_count=424 119 78 135 82 77 81 55
internal_value=0.0110386 -0.0139329 0.0211467 0.0133037 0.00357505 -0.00832172 -0.0281507
internal_weight=254.391 72.765 181.626 119.899 82.5272 51.6903 47.5716
internal_count=1051 557 494 359 277 200 479
is_linear=0
shrinkage=0.03


Tree=50
num_leaves=6
num_cat=0
split_feature=0 133 21 177 605
split_gain=68.1045 33.5264 18.3559 6.94029 1.79986
threshold=0.73032537102699291 0.18412313610315326 0.0064958846196532258 0.10831631720066072 0.0056787442881613978
decision_type=10 10 8 10 2
left_child=1 2 -1 -4 -2
right_child=4 -3 3 -5 -6
leaf_value=0.0044026527049977225 -0.03179667635456148 -0.0082301328820352411 0.016403403273271642 0.032976673381991568 -0.0095988938791178573
leaf_weight=43.573992565274239 29.128070216625929 40.748367659747601 42.553140565752983 81.193849854171276 7.2993536144495001
leaf_count=149 381 152 109 179 86
internal_value=0.0090629 0.0157486 0.0216916 0.027575 -0.0281248
internal_weight=244.497 208.069 167.321 123.747 36.4274
internal_count=1056 589 437 288 467
is_linear=0
shrinkage=0.03


Tree=51
num_leaves=7
num_cat=0
split_feature=4 250 639 407 563 69
split_gain=68.591 41.4284 23.7739 16.5685 6.02442 5.71879
threshold=0.44399808347225195 0.15657394379377368 0.13755542039871219 0.00079382164403796207 0.0098164873197674769 0.012503483798354866
decision_type=10 8 2 10 2 2
left_child=5 2 3 -2 -3 -1
right_child=1 4 -4 -5 -6 -7
leaf_value=0.031386272127758436 -0.027598223180799835 -0.035969974562840609 0.022288545929618188 0.0076733883153827292 -0.0056873899244301194 0.015945133540115213
leaf_weight=69.862351521849632 21.383920501917601 33.183979250490665 40.635013770312071 24.113935280591249 9.1568503081798536 44.05491304397583
leaf_count=155 117 369 123 93 89 110
internal_value=0.00886674 -0.00605858 0.00577206 -0.00881863 -0.0300493 0.025736
internal_weight=242.391 128.474 86.1329 45.4979 42.3408 113.917
internal_count=1056 791 333 210 458 265
is_linear=0
shrinkage=0.03


Tree=52
num_leaves=7
num_cat=0
split_feature=4 210 127 49 646 364
split_gain=65.4665 37.3917 28.8243 24.8739 7.73768 6.037
threshold=0.44399808347225195 0.13097140192985537 0.0032558853272348647 0.12574400007724765 0.002452469198033214 0.21698339283466342
decision_type=10 2 2 8 10 10
left_child=5 4 3 -3 -2 -1
right_child=1 2 -4 -5 -6 -7
leaf_value=0.014653643180092582 -0.0016901967808597351 -0.027178377070478318 0.028070449726495219 0.014064533759710493 -0.033854721428022663 0.030716238171422286
leaf_weight=40.314782321453094 9.6005053855478746 27.052018251270056 31.706928499042988 23.430769875645638 35.743772089481354 72.277058973908424
leaf_count=100 86 136 85 80 404 165
internal_value=0.00868276 -0.00593283 0.00600191 -0.00784342 -0.0275518 0.0252765
internal_weight=240.126 127.534 82.1897 50.4828 45.3443 112.592
internal_count=1056 791 301 216 490 265
is_linear=0
shrinkage=0.03


Tree=53
num_leaves=7
num_cat=0
split_feature=4 250 639 407 563 364
split_gain=62.502 39.1005 22.0129 15.7107 6.26764 5.94413
threshold=0.44399808347225195 0.15657394379377368 0.13755542039871219 0.00079382164403796207 0.0098198275081813353 0.21698339283466342
decision_type=10 8 2 10 2 10
left_child=5 2 3 -2 -3 -1
right_child=1 4 -4 -5 -6 -7
leaf_value=0.014298973530716019 -0.026947076121983868 -0.035705405979421082 0.021513170331451226 0.0075151271105559957 -0.0044353231485037619 0.030293445391488337
leaf_weight=40.103351816534996 21.107520863413811 32.122728396207094 40.477367509156466 24.084781810641289 8.7438704408705217 71.118786409497261
leaf_count=100 117 371 123 93 87 165
internal_value=0.00850934 -0.00580843 0.00559702 -0.00849098 -0.0296388 0.0248388
internal_weight=237.758 126.536 85.6697 45.1923 40.8666 111.222
internal_count=1056 791 333 210 458 265
is_linear=0
shrinkage=0.03


Tree=54
num_leaves=6
num_cat=0
split_feature=4 250 355 563 364
split_gain=59.6941 37.6078 21.6633 6.27962 5.85274
threshold=0.44399808347225195 0.15657394379377368 0.0055380130652338275 0.0098235225304961222 0.21698339283466342
decision_type=10 8 2 2 10
left_child=4 2 -2 -3 -1
right_child=1 3 -4 -5 -6
leaf_value=0.013952211150694727 -0.010274635851646658 -0.035481647243955777 0.01952789240621846 -0.0040073635707291513 0.029879415195642474
leaf_weight=39.895111590623856 40.063710521906614 31.473138961941004 45.469460681080818 8.6110493987798673 69.972412601113319
leaf_count=100 192 373 141 85 165
internal_value=0.00833462 -0.00568784 0.00543764 -0.0293474 0.0244092
internal_weight=235.485 125.617 85.5332 40.0842 109.868
internal_count=1056 791 333 458 265
is_linear=0
shrinkage=0.03


Tree=55
num_leaves=7
num_cat=0
split_feature=4 159 495 702 79 405
split_gain=66.9284 35.0637 36.1516 12.871 7.42831 5.24173
threshold=0.44399808347225195 0.28040885925292974 0.086866464465856566 1.0000370740890505 0.45509979128837591 0.0062806601636111745
decision_type=10 2 2 10 10 10
left_child=4 2 3 -2 -1 -5
right_child=1 -3 -4 5 -6 -7
leaf_value=0.014254444209187103 0 0.017066892552735396 0.016799880621057191 -0.037838381811552614 0.03104740348062281 -0.01039096227124507
leaf_weight=47.753445282578468 12.441363539546726 36.754025496542454 20.421726070344448 46.917965997010469 66.772532895207405 10.128508798778055
leaf_count=122 70 97 70 502 156 64
internal_value=0.00780915 -0.00711103 -0.0172387 -0.0275515 0.0243591 -0.0334865
internal_weight=241.19 126.664 89.9096 69.4878 114.526 57.0465
internal_count=1081 803 706 636 278 566
is_linear=0
shrinkage=0.03


Tree=56
num_leaves=7
num_cat=0
split_feature=4 159 495 702 79 405
split_gain=63.8506 33.3603 34.6769 12.5831 7.30286 5.25968
threshold=0.44399808347225195 0.28040885925292974 0.086866464465856566 1.0000370740890505 0.45509979128837591 0.0063073819037526855
decision_type=10 2 2 10 10 10
left_child=4 2 3 -2 -1 -5
right_child=1 -3 -4 5 -6 -7
leaf_value=0.013914797086949543 0 0.016586768587883761 0.016312739955958892 -0.03758716671459935 0.030638774627151717 -0.010022455767037487
leaf_weight=47.480094835162163 12.441363539546726 36.712948024272919 20.430350083857775 45.887144975364208 65.663374066352844 10.037952583283184
leaf_count=122 70 97 70 503 156 63
internal_value=0.00766084 -0.00696492 -0.0169457 -0.0271926 0.0239354 -0.0331661
internal_weight=238.653 125.51 88.7968 68.3665 113.143 55.9251
internal_count=1081 803 706 636 278 566
is_linear=0
shrinkage=0.03


Tree=57
num_leaves=7
num_cat=0
split_feature=4 14 49 127 135 8
split_gain=60.9158 31.48 30.0657 13.2283 7.69675 5.08928
threshold=0.44399808347225195 0.1582228168845177 0.25456263124942785 0.0088854371570050734 0.57790285348892223 0.71189883351326
decision_type=10 2 10 2 8 2
left_child=4 2 3 5 -1 -2
right_child=1 -3 -4 -5 -6 -7
leaf_value=0.030001613070381392 -0.037437839444402994 0.011752246822549866 0.022976953461416698 0.0019377732075646951 0.012649759393917109 -0.0093710928331827044
leaf_weight=68.052644729614258 44.057736754417419 48.398206952959299 11.849490664899347 10.729221142828463 43.725618079304695 9.3384423442184907
leaf_count=165 489 144 48 50 113 72
internal_value=0.00751513 -0.00682153 -0.0188474 -0.0270404 0.0235192 -0.0330675
internal_weight=236.151 124.373 75.9749 64.1254 111.778 53.3962
internal_count=1081 803 659 611 278 561
is_linear=0
shrinkage=0.03


Tree=58
num_leaves=7
num_cat=0
split_feature=4 159 495 702 135 405
split_gain=58.101 30.5127 32.3222 12.2426 7.55323 5.97123
threshold=0.44399808347225195 0.28040885925292974 0.086866464465856566 1.0000370740890505 0.57790285348892223 0.0063308926764875659
decision_type=10 2 2 10 8 10
left_child=4 2 3 -2 -1 -5
right_child=1 -3 -4 5 -6 -7
leaf_value=0.029604371113619292 0 0.015792223615242476 0.015587705052205171 -0.037321054115759464 0.012341589477701736 -0.0079349886369153508
leaf_weight=66.927347496151924 12.36446316167712 36.635968253016472 20.411628093570471 44.394015934318304 43.501339390873909 9.5253141149878484
leaf_count=165 70 97 70 506 113 60
internal_value=0.00737173 -0.0066723 -0.0164083 -0.0265694 0.0231104 -0.0326419
internal_weight=233.76 123.331 86.6954 66.2838 110.429 53.9193
internal_count=1081 803 706 636 278 566
is_linear=0
shrinkage=0.03


Tree=59
num_leaves=7
num_cat=0
split_feature=4 159 49 358 79 421
split_gain=55.4275 29.0295 31.8673 17.6263 7.43087 4.0451
threshold=0.44399808347225195 0.28040885925292974 0.25456263124942785 0.96091589331626903 0.45509979128837591 0.0032978367526084189
decision_type=10 2 10 2 10 10
left_child=4 2 3 5 -1 -2
right_child=1 -3 -4 -5 -6 -7
leaf_value=0.012596115447615863 -0.037231181873925316 0.015350760003566088 0.021724648378801208 0.0010346907747118396 0.02961921686649454 -0.011879971541003877
leaf_weight=46.317204639315605 43.359338015317917 36.588358111679554 15.202039264142511 17.034574333578348 62.780824840068817 10.042448390275238
leaf_count=122 492 97 56 71 156 87
internal_value=0.00723156 -0.00653333 -0.0161255 -0.0246943 0.0227084 -0.0330455
internal_weight=231.325 122.227 85.6384 70.4364 109.098 53.4018
internal_count=1081 803 706 650 278 579
is_linear=0
shrinkage=0.03


Tree=60
num_leaves=8
num_cat=0
split_feature=238 44 10 411 639 478 805
split_gain=55.1491 29.8859 15.4416 15.2629 16.0545 4.47072 0.59189
threshold=0.81601083278656017 0.044017227366566665 0.20984335988759997 0.0031984620727598671 0.13755542039871219 0.0084444633685052412 0.45889800786972051
decision_type=10 10 2 8 2 8 10
left_child=1 2 5 4 -2 -1 -7
right_child=3 -3 -4 -5 -6 6 -8
leaf_value=-0.0074023417583427642 -0.005717328669898685 0.016265958421044783 0.0049146279486660073 0.030091871246372921 0.02135492921010659 -0.037714657431875478 -0.017964178468251681
leaf_weight=8.6911465190350992 33.052497215569019 23.956841357052326 13.318250164389609 62.829491131007671 44.334755424410105 31.379328422248363 7.8670485056936732
leaf_count=81 122 63 47 161 114 375 97
internal_value=0.00752241 -0.0113195 -0.022437 0.0190783 0.00967544 -0.0302876 -0.034673
internal_weight=225.429 85.2126 61.2558 140.217 77.3873 47.9375 39.2464
internal_count=1060 663 600 397 236 553 472
is_linear=0
shrinkage=0.03


Tree=61
num_leaves=8
num_cat=0
split_feature=239 44 49 34 56 459 470
split_gain=52.747 34.1999 15.678 14.9196 14.7894 7.7867 2.859
threshold=0.64137166738510143 0.044017227366566665 0.20242677628993991 0.0094512463547289389 0.052411427721381194 0.0021101445890963082 0.0054860033560544261
decision_type=10 10 10 2 8 2 2
left_child=1 2 5 4 -2 -1 -7
right_child=3 -3 -4 -5 -6 6 -8
leaf_value=-0.0044474067511612297 -0.0018857566859920292 0.017844095898732676 0.010071114749946031 0.032514293056984611 0.022898048068605945 -0.039892228083607824 -0.01719868296308066
leaf_weight=11.424043502658604 39.37305112183094 26.398035436868668 10.315440785139797 49.267976276576519 44.209343437105417 30.354562755674124 11.987243633717297
leaf_count=107 132 69 51 122 119 329 131
internal_value=0.00736385 -0.0101287 -0.0219796 0.0193761 0.0111616 -0.0284743 -0.0343587
internal_weight=223.33 90.4793 64.0813 132.85 83.5824 53.7658 42.3418
internal_count=1060 687 618 373 251 567 460
is_linear=0
shrinkage=0.03


Tree=62
num_leaves=7
num_cat=0
split_feature=238 40 58 411 49 648
split_gain=50.5104 27.0727 15.0487 14.7928 15.4178 4.96172
threshold=0.81601083278656017 0.053084287792444236 0.33285133540630346 0.0031984620727598671 0.16115738451480868 0.97777828574180614
decision_type=10 10 2 8 8 2
left_child=1 2 5 4 -2 -1
right_child=3 -3 -4 -5 -6 -7
leaf_value=-0.0084536660776117541 -0.0048172838762802241 0.016908227588895961 0.0021276145536014307 0.029358270590015639 0.021613685004019695 -0.035564263092601418
leaf_weight=10.110088411718605 36.032144632190466 21.673234842717648 16.857348687946796 61.252836924046278 40.592407148331404 34.795119363814592
leaf_count=94 126 56 64 161 110 449
internal_value=0.00720882 -0.0110213 -0.0211743 0.0183486 0.00908953 -0.0301044
internal_weight=221.313 83.4358 61.7626 137.877 76.6246 44.9052
internal_count=1060 663 607 397 236 543
is_linear=0
shrinkage=0.03


Tree=63
num_leaves=7
num_cat=0
split_feature=2 239 641 242 56 751
split_gain=48.5474 23.6606 18.9124 13.661 4.70306 1.55293
threshold=0.65518647432327282 0.64137166738510143 0.025459548458456997 0.00055824665469117473 0.053765095770359046 0.056593708693981178
decision_type=8 8 10 10 8 8
left_child=1 2 -1 -3 -5 -2
right_child=5 3 -4 4 -6 -7
leaf_value=-0.018160157981904967 -0.031549562789431093 0.0052422026771957965 0.015349417908033486 0.018185083739607727 0.03411925307666417 -0.0084927460491739364
